{"learner":{"attributes":{"scikit_learn":"{\"_estimator_type\": \"classifier\"}"},"feature_names":["age","sex","cp","trestbps","chol","fbs","thalach"],"feature_types":["int","int","int","int","int","int","int"],"gradient_booster":{"model":{"cats":{"enc":[],"feature_segments":[],"sorted_idx":[]},"gbtree_model_param":{"num_parallel_tree":"1","num_trees":"100"},"iteration_indptr":[0,1,2,3,4,5,6,7,8,9,10,11,12,13,14,15,16,17,18,19,20,21,22,23,24,25,26,27,28,29,30,31,32,33,34,35,36,37,38,39,40,41,42,43,44,45,46,47,48,49,50,51,52,53,54,55,56,57,58,59,60,61,62,63,64,65,66,67,68,69,70,71,72,73,74,75,76,77,78,79,80,81,82,83,84,85,86,87,88,89,90,91,92,93,94,95,96,97,98,99,100],"tree_info":[0,0,0,0,0,0,0,0,0,0,0,0,0,0,0,0,0,0,0,0,0,0,0,0,0,0,0,0,0,0,0,0,0,0,0,0,0,0,0,0,0,0,0,0,0,0,0,0,0,0,0,0,0,0,0,0,0,0,0,0,0,0,0,0,0,0,0,0,0,0,0,0,0,0,0,0,0,0,0,0,0,0,0,0,0,0,0,0,0,0,0,0,0,0,0,0,0,0,0,0],"trees":[{"base_weights":[-8.528581E-8,-1.0654241E0,4.6615878E-1,-1.5383979E0,-5.86043E-1,3.6076978E-2,8.3499986E-1,-1.8090776E0,-1.4088637E0,-8.391671E-1,6.689202E-2,-2.7532828E-1,3.4509528E-1,5.6302947E-1,1.1525501E0,-1.8218403E0,-1.0679545E0,-1.4885336E0,-8.4314054E-1,-1.0856949E0,-5.284485E-1,-2.989356E-1,4.4510457E-1,5.2162345E-2,-5.68755E-1,1.2417434E-2,6.1239517E-1,7.738542E-1,1.9016023E-1,1.4217939E0,9.532797E-1,-5.481519E-1,-1.7100015E-1,-5.106005E-1,1.5999331E-3,-1.5898993E0,-1.1394976E0,-9.8468554E-1,2.7870076E-2,-3.8070083E-1,-1.1742573E0,-2.6478413E-1,-9.585562E-1,-7.9802513E-1,9.419999E-3,7.682465E-1,1.2462269E-1,-4.0608123E-1,2.4289279E-1,-8.2698435E-1,-3.113149E-1,3.577631E-1,-2.5121626E-1,7.81248E-1,1.3589166E-1,4.019952E-1,9.339998E-1,-2.5262028E-1,4.5017835E-1,1.1019857E0,1.4883279E0,7.2611755E-1,1.1845086E0,1.7185725E-1,-2.3964016E-1,-5.080351E-1,-4.3021196E-1,3.854432E-2,-3.7964073E-1,-1.762927E-1,-3.6453348E-1,9.529481E-2,-1.9950019E-1,-3.4487915E-1,1.37736155E-2,-4.0228403E-1,-2.6054332E-1,-1.3786432E-1,1.089251E-1,-3.9608616E-1,-2.1036464E-1,-2.5871387E-1,1.7692955E-1,2.0058663E-1,-9.310533E-2,1.2894638E-1,3.1985536E-1,-3.7031747E-2,2.16581E-1,8.839031E-2,-1.6825594E-1,-5.7811413E-2,1.1938416E-1,-2.7740794E-1,-1.2162979E-1,-1.7663924E-1,-2.9278064E-2,3.150546E-2,1.9113667E-1,-2.8133768E-1,-3.8250715E-2,1.4306885E-1,2.925814E-1,-5.3661786E-2,1.02880575E-1,5.005147E-2,2.4727458E-1,2.3867966E-1,3.810579E-1,-1.2554011E-2,-2.0387621E-1,1.6687348E-2,1.812776E-1,3.9204657E-1,1.9827418E-1,4.1039696E-1,4.9341372E-1,1.2090948E-1,2.7645493E-1,2.9467142E-1,4.248269E-1],"categories":[],"categories_nodes":[],"categories_segments":[],"categories_sizes":[],"default_left":[0,0,0,0,0,0,0,0,0,0,0,0,0,0,0,0,0,0,0,0,0,0,0,0,0,0,0,0,0,0,0,0,0,0,0,0,0,0,0,0,0,0,0,0,0,0,0,0,0,0,0,0,0,0,0,0,0,0,0,0,0,0,0,0,0,0,0,0,0,0,0,0,0,0,0,0,0,0,0,0,0,0,0,0,0,0,0,0,0,0,0,0,0,0,0,0,0,0,0,0,0,0,0,0,0,0,0,0,0,0,0,0,0,0,0,0,0,0,0,0,0],"id":0,"left_children":[1,3,5,7,9,11,13,15,17,19,21,23,25,27,29,31,33,35,37,39,41,43,45,47,49,51,53,55,57,59,61,-1,-1,-1,63,65,67,69,71,73,75,77,79,81,83,85,87,89,91,93,95,97,99,101,103,105,107,109,111,113,115,117,119,-1,-1,-1,-1,-1,-1,-1,-1,-1,-1,-1,-1,-1,-1,-1,-1,-1,-1,-1,-1,-1,-1,-1,-1,-1,-1,-1,-1,-1,-1,-1,-1,-1,-1,-1,-1,-1,-1,-1,-1,-1,-1,-1,-1,-1,-1,-1,-1,-1,-1,-1,-1,-1,-1,-1,-1,-1,-1],"loss_changes":[4.967556E3,6.8933496E2,1.1036891E3,5.1157715E1,2.5019757E2,3.0930548E2,3.2282788E2,2.7104492E0,4.56416E1,8.2978455E1,5.8763294E1,1.538768E2,1.4345012E2,1.5860571E2,9.1302246E1,2.1794434E0,7.2928057E0,3.0410889E1,1.6147232E1,3.7467102E1,5.4690414E1,3.3249245E1,2.1522617E1,6.630482E1,5.5883636E1,6.561927E1,7.186429E1,7.643115E1,8.424558E1,1.3946167E1,5.142993E1,0E0,0E0,0E0,2.743771E0,8.921753E0,3.3466064E1,9.578468E0,4.07624E0,2.2768211E1,2.630841E1,3.706654E1,1.6179123E1,7.8766975E0,2.8559238E1,1.0002808E1,1.5795202E1,2.4349815E1,3.624502E1,1.696579E1,2.5117039E1,2.1962322E1,3.4599197E1,3.85235E1,1.53925495E1,3.858782E1,4.0900696E1,2.4359741E1,2.7976715E1,1.0881454E1,9.1073E0,3.1493713E1,2.1643555E1,0E0,0E0,0E0,0E0,0E0,0E0,0E0,0E0,0E0,0E0,0E0,0E0,0E0,0E0,0E0,0E0,0E0,0E0,0E0,0E0,0E0,0E0,0E0,0E0,0E0,0E0,0E0,0E0,0E0,0E0,0E0,0E0,0E0,0E0,0E0,0E0,0E0,0E0,0E0,0E0,0E0,0E0,0E0,0E0,0E0,0E0,0E0,0E0,0E0,0E0,0E0,0E0,0E0,0E0,0E0,0E0,0E0,0E0],"parents":[2147483647,0,0,1,1,2,2,3,3,4,4,5,5,6,6,7,7,8,8,9,9,10,10,11,11,12,12,13,13,14,14,15,15,16,16,17,17,18,18,19,19,20,20,21,21,22,22,23,23,24,24,25,25,26,26,27,27,28,28,29,29,30,30,34,34,35,35,36,36,37,37,38,38,39,39,40,40,41,41,42,42,43,43,44,44,45,45,46,46,47,47,48,48,49,49,50,50,51,51,52,52,53,53,54,54,55,55,56,56,57,57,58,58,59,59,60,60,61,61,62,62],"right_children":[2,4,6,8,10,12,14,16,18,20,22,24,26,28,30,32,34,36,38,40,42,44,46,48,50,52,54,56,58,60,62,-1,-1,-1,64,66,68,70,72,74,76,78,80,82,84,86,88,90,92,94,96,98,100,102,104,106,108,110,112,114,116,118,120,-1,-1,-1,-1,-1,-1,-1,-1,-1,-1,-1,-1,-1,-1,-1,-1,-1,-1,-1,-1,-1,-1,-1,-1,-1,-1,-1,-1,-1,-1,-1,-1,-1,-1,-1,-1,-1,-1,-1,-1,-1,-1,-1,-1,-1,-1,-1,-1,-1,-1,-1,-1,-1,-1,-1,-1,-1,-1],"split_conditions":[4E0,3E0,4.4E1,2E0,5.2E1,2E2,2.04E2,2.76E2,5.8E1,2.05E2,2.02E2,1.59E2,1.18E2,1.67E2,1.56E2,7.8E1,1.23E2,2.26E2,2.4E2,1.36E2,1.66E2,1.16E2,1.59E2,3.2E1,1.2E2,1.57E2,1.72E2,1.12E2,1.15E2,1.06E2,5.3E1,-5.481519E-1,-1.7100015E-1,-5.106005E-1,1.71E2,1.23E2,1.33E2,1.55E2,1.72E2,1.69E2,1.25E2,1.3E2,3.8E1,7.2E1,1.51E2,1.19E2,1.29E2,1.33E2,1.11E2,1.92E2,1.74E2,3.7E1,2.7E1,3.4E1,3.4E1,5.6E1,5.7E1,1.84E2,1.64E2,1.48E2,5.4E1,1.15E2,1.22E2,1.7185725E-1,-2.3964016E-1,-5.080351E-1,-4.3021196E-1,3.854432E-2,-3.7964073E-1,-1.762927E-1,-3.6453348E-1,9.529481E-2,-1.9950019E-1,-3.4487915E-1,1.37736155E-2,-4.0228403E-1,-2.6054332E-1,-1.3786432E-1,1.089251E-1,-3.9608616E-1,-2.1036464E-1,-2.5871387E-1,1.7692955E-1,2.0058663E-1,-9.310533E-2,1.2894638E-1,3.1985536E-1,-3.7031747E-2,2.16581E-1,8.839031E-2,-1.6825594E-1,-5.7811413E-2,1.1938416E-1,-2.7740794E-1,-1.2162979E-1,-1.7663924E-1,-2.9278064E-2,3.150546E-2,1.9113667E-1,-2.8133768E-1,-3.8250715E-2,1.4306885E-1,2.925814E-1,-5.3661786E-2,1.02880575E-1,5.005147E-2,2.4727458E-1,2.3867966E-1,3.810579E-1,-1.2554011E-2,-2.0387621E-1,1.6687348E-2,1.812776E-1,3.9204657E-1,1.9827418E-1,4.1039696E-1,4.9341372E-1,1.2090948E-1,2.7645493E-1,2.9467142E-1,4.248269E-1],"split_indices":[2,2,0,2,0,4,4,4,0,4,4,6,3,6,6,0,3,4,4,6,6,3,6,0,3,6,6,3,3,3,0,0,0,0,6,3,6,6,6,4,3,3,0,0,6,3,3,6,3,4,4,0,0,0,0,0,0,6,4,6,0,3,3,0,0,0,0,0,0,0,0,0,0,0,0,0,0,0,0,0,0,0,0,0,0,0,0,0,0,0,0,0,0,0,0,0,0,0,0,0,0,0,0,0,0,0,0,0,0,0,0,0,0,0,0,0,0,0,0,0,0],"split_type":[0,0,0,0,0,0,0,0,0,0,0,0,0,0,0,0,0,0,0,0,0,0,0,0,0,0,0,0,0,0,0,0,0,0,0,0,0,0,0,0,0,0,0,0,0,0,0,0,0,0,0,0,0,0,0,0,0,0,0,0,0,0,0,0,0,0,0,0,0,0,0,0,0,0,0,0,0,0,0,0,0,0,0,0,0,0,0,0,0,0,0,0,0,0,0,0,0,0,0,0,0,0,0,0,0,0,0,0,0,0,0,0,0,0,0,0,0,0,0,0,0],"sum_hessian":[9.999989E3,3.0432468E3,6.9567427E3,1.5307484E3,1.5124984E3,3.2122466E3,3.744496E3,4.9124948E2,1.0394989E3,1.0897488E3,4.2274954E2,1.5999983E3,1.6122483E3,2.0184978E3,1.7259982E3,4.8149948E2,9.7499895E0,9.09749E2,1.2974986E2,6.062493E2,4.8349948E2,2.1499977E2,2.0774977E2,7.564992E2,8.434991E2,7.187492E2,8.93499E2,1.2887487E3,7.297492E2,7.314992E2,9.9449896E2,4.7899948E2,2.4999974E0,5.749994E0,3.9999957E0,7.0224927E2,2.0749977E2,1.1149988E2,1.824998E1,6.824992E1,5.3799945E2,3.0074966E2,1.827498E2,8.1499916E1,1.3349986E2,1.0274989E2,1.04999886E2,2.2199976E2,5.3449945E2,4.1999954E2,4.2349954E2,3.1099966E2,4.0774957E2,6.5924927E2,2.3424976E2,3.8899957E2,8.99749E2,2.6999973E2,4.597495E2,1.2899986E2,6.024993E2,5.0374945E2,4.9074948E2,2.4999974E0,1.4999983E0,4.1599954E2,2.862497E2,1.8749979E1,1.887498E2,4.2249954E1,6.924992E1,1.3249986E1,4.9999948E0,2.3749975E1,4.449995E1,3.4599963E2,1.9199979E2,2.2974976E2,7.099992E1,7.424992E1,1.08499886E2,7.8249916E1,3.2499964E0,4.3249954E1,9.02499E1,4.9249947E1,5.3499943E1,7.4749916E1,3.0249968E1,3.9999958E1,1.819998E2,1.4024985E2,3.9424957E2,3.3999963E2,7.9999916E1,1.834998E2,2.3999974E2,1.6399982E2,1.4699985E2,6.1249935E1,3.4649963E2,2.5799973E2,4.0124957E2,9.29999E1,1.4124985E2,2.5074973E2,1.3824985E2,6.397493E2,2.5999973E2,1.814998E2,8.849991E1,1.2949986E2,3.3024963E2,8.674991E1,4.2249954E1,3.4599963E2,2.5649973E2,1.909998E2,3.1274966E2,2.6474973E2,2.2599976E2],"tree_param":{"num_deleted":"0","num_feature":"7","num_nodes":"121","size_leaf_vector":"1"}},{"base_weights":[-8.213908E-4,-7.809411E-1,3.330556E-1,-1.1506565E0,-4.2013836E-1,-5.2726567E-2,5.5837166E-1,-1.380106E0,-1.0437368E0,-5.757669E-1,1.7382994E-1,-2.6862955E-1,2.0477925E-1,2.848203E-1,7.438063E-1,-1.4292092E0,-1.1784087E0,-1.143378E0,-7.3317605E-1,-4.143115E-1,-8.877955E-1,5.088779E-1,-8.57761E-2,-3.7139988E-1,2.128826E-1,5.382268E-1,1.4892487E-2,8.5760266E-2,5.527806E-1,8.411264E-1,3.1540245E-1,-1.1515963E-1,-1.4314989E0,-1.2409352E0,-5.177673E-1,-7.8105533E-1,-1.2127608E0,-9.1592366E-1,-1.4186671E-1,-8.4471077E-1,-2.605656E-1,-1.176263E0,-7.174689E-1,2.4989556E-1,8.0329186E-1,-5.3052473E-1,1.9615418E-1,-1.2494924E-1,-5.98862E-1,-1.322258E-1,5.239484E-1,-1.11644514E-1,6.490064E-1,-1.695296E-1,2.8727233E-1,-4.212209E-2,6.2068915E-1,6.856154E-1,8.980064E-2,6.869508E-1,1.0001085E0,1.1342857E-2,5.6981385E-1,-4.3049648E-1,-1.7440802E-1,-3.8713428E-1,-1.4981152E-1,-2.7281028E-1,1.2762971E-1,-2.740782E-1,-3.8126115E-2,-3.7013125E-1,-7.505916E-2,-3.8850066E-1,-2.213186E-1,1.0764787E-1,-1.8768878E-1,-3.213058E-1,-1.6926295E-1,-2.4499193E-1,-4.1843254E-2,-3.966532E-1,-2.1077767E-1,-2.8039277E-1,-1.4959024E-1,2.2216965E-2,1.9887061E-1,1.4458506E-1,2.9944834E-1,-2.2296484E-1,3.5430156E-2,-5.0947186E-2,1.2301486E-1,-1.1649292E-1,6.1402996E-3,-2.9504108E-1,-1.5267102E-1,-2.204264E-1,1.2743105E-2,1.951377E-1,4.2156637E-2,-1.6254541E-1,1.4955987E-2,7.2830215E-2,2.3430087E-1,-7.822037E-2,1.9697891E-1,5.405026E-2,1.8953274E-1,3.3591613E-2,-1.4439383E-1,3.129494E-1,1.4094107E-1,1.6712043E-1,2.9012853E-1,-1.1494549E-1,7.1923345E-2,1.723656E-1,2.8624535E-1,3.5516107E-1,2.6609057E-1,-2.35169E-1,3.1784385E-2,6.4390555E-2,2.1763796E-1],"categories":[],"categories_nodes":[],"categories_segments":[],"categories_sizes":[],"default_left":[0,0,0,0,0,0,0,0,0,0,0,0,0,0,0,0,0,0,0,0,0,0,0,0,0,0,0,0,0,0,0,0,0,0,0,0,0,0,0,0,0,0,0,0,0,0,0,0,0,0,0,0,0,0,0,0,0,0,0,0,0,0,0,0,0,0,0,0,0,0,0,0,0,0,0,0,0,0,0,0,0,0,0,0,0,0,0,0,0,0,0,0,0,0,0,0,0,0,0,0,0,0,0,0,0,0,0,0,0,0,0,0,0,0,0,0,0,0,0,0,0,0,0,0,0],"id":1,"left_children":[1,3,5,7,9,11,13,15,17,19,21,23,25,27,29,31,33,35,37,39,41,43,45,47,49,51,53,55,57,59,61,-1,63,65,67,69,71,73,75,77,79,81,83,85,87,89,91,93,95,97,99,101,103,105,107,109,111,113,115,117,119,121,123,-1,-1,-1,-1,-1,-1,-1,-1,-1,-1,-1,-1,-1,-1,-1,-1,-1,-1,-1,-1,-1,-1,-1,-1,-1,-1,-1,-1,-1,-1,-1,-1,-1,-1,-1,-1,-1,-1,-1,-1,-1,-1,-1,-1,-1,-1,-1,-1,-1,-1,-1,-1,-1,-1,-1,-1,-1,-1,-1,-1,-1,-1],"loss_changes":[2.5498342E3,3.9090125E2,5.959329E2,3.4096436E1,1.375094E2,1.4063565E2,2.1932703E2,2.845337E0,2.9865356E1,5.8983673E1,2.6954437E1,6.816261E1,7.304497E1,9.330588E1,1.0725037E2,3.1958008E-1,3.2915955E0,1.789209E1,2.6215485E1,5.127861E1,1.885141E1,1.0108994E1,2.2069021E1,6.350659E1,2.6116356E1,3.0208687E1,3.7028038E1,6.880074E1,4.5804413E1,5.080652E1,3.7045334E1,0E0,2.3944092E-1,2.5238037E0,4.062172E0,1.0566933E1,1.2374573E1,1.1612991E1,1.4452977E1,1.237027E1,3.8594032E1,9.248428E0,1.1633881E1,5.280443E0,3.453102E0,9.500999E0,8.519504E0,2.0904478E1,1.9897583E1,1.2222973E1,6.108452E0,4.321609E0,1.899556E1,3.3292297E1,1.0866137E1,5.50292E1,1.1878891E1,2.0424805E1,1.1964798E1,3.1578827E1,2.0408081E1,1.6575628E1,1.4259575E1,0E0,0E0,0E0,0E0,0E0,0E0,0E0,0E0,0E0,0E0,0E0,0E0,0E0,0E0,0E0,0E0,0E0,0E0,0E0,0E0,0E0,0E0,0E0,0E0,0E0,0E0,0E0,0E0,0E0,0E0,0E0,0E0,0E0,0E0,0E0,0E0,0E0,0E0,0E0,0E0,0E0,0E0,0E0,0E0,0E0,0E0,0E0,0E0,0E0,0E0,0E0,0E0,0E0,0E0,0E0,0E0,0E0,0E0,0E0,0E0,0E0,0E0],"parents":[2147483647,0,0,1,1,2,2,3,3,4,4,5,5,6,6,7,7,8,8,9,9,10,10,11,11,12,12,13,13,14,14,15,15,16,16,17,17,18,18,19,19,20,20,21,21,22,22,23,23,24,24,25,25,26,26,27,27,28,28,29,29,30,30,32,32,33,33,34,34,35,35,36,36,37,37,38,38,39,39,40,40,41,41,42,42,43,43,44,44,45,45,46,46,47,47,48,48,49,49,50,50,51,51,52,52,53,53,54,54,55,55,56,56,57,57,58,58,59,59,60,60,61,61,62,62],"right_children":[2,4,6,8,10,12,14,16,18,20,22,24,26,28,30,32,34,36,38,40,42,44,46,48,50,52,54,56,58,60,62,-1,64,66,68,70,72,74,76,78,80,82,84,86,88,90,92,94,96,98,100,102,104,106,108,110,112,114,116,118,120,122,124,-1,-1,-1,-1,-1,-1,-1,-1,-1,-1,-1,-1,-1,-1,-1,-1,-1,-1,-1,-1,-1,-1,-1,-1,-1,-1,-1,-1,-1,-1,-1,-1,-1,-1,-1,-1,-1,-1,-1,-1,-1,-1,-1,-1,-1,-1,-1,-1,-1,-1,-1,-1,-1,-1,-1,-1,-1,-1,-1,-1,-1,-1],"split_conditions":[4E0,3E0,4.1E1,2E0,5.5E1,2.04E2,1.92E2,5.5E1,5.3E1,1.68E2,1.57E2,1.34E2,1.53E2,1.23E2,1.78E2,1.05E2,2.44E2,1.4E2,2.27E2,1.1E2,3.8E1,2.06E2,1.93E2,1.59E2,1.77E2,1.03E2,1.23E2,5.9E1,1.76E2,5.1E1,5E1,-1.1515963E-1,2.92E2,1E0,6.2E1,1.35E2,1.51E2,1.74E2,1.58E2,2.03E2,3.2E1,2.24E2,2E2,1.3E2,1.16E2,1.31E2,5.9E1,1.12E2,2.7E1,2.9E1,1.74E2,9.4E1,2.9E1,2.58E2,2.44E2,1.73E2,1.48E2,5.5E1,1.55E2,2.33E2,1.5E2,1.01E2,1.12E2,-4.3049648E-1,-1.7440802E-1,-3.8713428E-1,-1.4981152E-1,-2.7281028E-1,1.2762971E-1,-2.740782E-1,-3.8126115E-2,-3.7013125E-1,-7.505916E-2,-3.8850066E-1,-2.213186E-1,1.0764787E-1,-1.8768878E-1,-3.213058E-1,-1.6926295E-1,-2.4499193E-1,-4.1843254E-2,-3.966532E-1,-2.1077767E-1,-2.8039277E-1,-1.4959024E-1,2.2216965E-2,1.9887061E-1,1.4458506E-1,2.9944834E-1,-2.2296484E-1,3.5430156E-2,-5.0947186E-2,1.2301486E-1,-1.1649292E-1,6.1402996E-3,-2.9504108E-1,-1.5267102E-1,-2.204264E-1,1.2743105E-2,1.951377E-1,4.2156637E-2,-1.6254541E-1,1.4955987E-2,7.2830215E-2,2.3430087E-1,-7.822037E-2,1.9697891E-1,5.405026E-2,1.8953274E-1,3.3591613E-2,-1.4439383E-1,3.129494E-1,1.4094107E-1,1.6712043E-1,2.9012853E-1,-1.1494549E-1,7.1923345E-2,1.723656E-1,2.8624535E-1,3.5516107E-1,2.6609057E-1,-2.35169E-1,3.1784385E-2,6.4390555E-2,2.1763796E-1],"split_indices":[2,2,0,2,0,4,4,0,0,6,6,3,6,3,6,6,4,6,4,3,0,4,4,6,4,3,3,0,6,0,0,0,4,5,0,3,3,4,6,4,0,4,4,3,3,3,0,3,0,0,6,3,0,4,4,6,6,0,4,4,6,3,3,0,0,0,0,0,0,0,0,0,0,0,0,0,0,0,0,0,0,0,0,0,0,0,0,0,0,0,0,0,0,0,0,0,0,0,0,0,0,0,0,0,0,0,0,0,0,0,0,0,0,0,0,0,0,0,0,0,0,0,0,0,0],"split_type":[0,0,0,0,0,0,0,0,0,0,0,0,0,0,0,0,0,0,0,0,0,0,0,0,0,0,0,0,0,0,0,0,0,0,0,0,0,0,0,0,0,0,0,0,0,0,0,0,0,0,0,0,0,0,0,0,0,0,0,0,0,0,0,0,0,0,0,0,0,0,0,0,0,0,0,0,0,0,0,0,0,0,0,0,0,0,0,0,0,0,0,0,0,0,0,0,0,0,0,0,0,0,0,0,0,0,0,0,0,0,0,0,0,0,0,0,0,0,0,0,0,0,0,0,0],"sum_hessian":[9.787584E3,2.9330447E3,6.8545396E3,1.4475491E3,1.4854956E3,2.5275981E3,4.326942E3,4.5633853E2,9.912105E2,1.1771067E3,3.0838885E2,1.3748374E3,1.1527607E3,1.7491493E3,2.5777925E3,3.620994E2,9.423912E1,7.4840765E2,2.4280287E2,7.7725397E2,3.9985275E2,1.3421307E2,1.7417578E2,1.1332036E3,2.4163379E2,4.1760242E2,7.351584E2,1.00435956E3,7.4478973E2,2.0998162E3,4.7797632E2,1.1599909E0,3.609394E2,8.52886E1,8.9505205E0,1.2225259E2,6.261551E2,1.8506003E2,5.7742844E1,2.0338892E2,5.7386505E2,1.4625217E2,2.5360059E2,7.238667E1,6.18264E1,6.723304E1,1.0694273E2,5.4464307E2,5.885605E2,1.148214E2,1.2681238E2,6.081761E1,3.5678482E2,4.3858212E2,2.9657623E2,8.113226E2,1.9303694E2,5.783678E2,1.6642194E2,1.0687239E3,1.0310923E3,2.1821791E2,2.5975842E2,3.5877887E2,2.160537E0,7.9256645E1,6.031953E0,6.3499856E0,2.6005352E0,1.0132103E2,2.0931551E1,6.1250415E2,1.3650945E1,5.717115E1,1.2788888E2,2.8501808E1,2.9241035E1,1.11008705E2,9.238021E1,1.01589645E2,4.722754E2,1.1043983E2,3.5812344E1,1.25641685E2,1.2795891E2,5.159796E1,2.078871E1,2.4650553E1,3.717585E1,5.052086E1,1.6712181E1,3.952349E1,6.741924E1,1.9315504E2,3.51488E2,1.0968442E2,4.788761E2,2.5088495E1,8.973291E1,9.482776E1,3.1984627E1,1.5957492E1,4.486012E1,8.819391E1,2.685909E2,3.9559277E2,4.298937E1,2.2740108E2,6.917515E1,6.011489E2,2.1017365E2,4.924334E1,1.4379361E2,3.9908905E2,1.7927875E2,3.968677E1,1.2673517E2,7.544936E2,3.1423022E2,3.8931067E2,6.4178156E2,2.2425528E1,1.9579237E2,7.987209E1,1.7988632E2],"tree_param":{"num_deleted":"0","num_feature":"7","num_nodes":"125","size_leaf_vector":"1"}},{"base_weights":[-2.3093186E-3,-5.983106E-1,2.4235824E-1,-9.209175E-1,-3.0739084E-1,-6.274984E-2,4.014451E-1,-1.1545397E0,-8.180456E-1,-5.034374E-1,-1.441781E-2,1.9083673E-2,-4.4489717E-1,2.6737162E-1,6.6089004E-1,-1.2037388E0,-9.5984733E-1,-9.1382784E-1,-5.419875E-1,-8.1997246E-1,-3.675026E-1,-1.4496781E-1,4.7484928E-1,-6.541372E-2,4.3987364E-1,-8.549408E-1,-3.0967674E-1,5.2411723E-1,1.3655014E-1,8.277056E-1,4.9653968E-1,-1.1210043E0,-3.8370156E-1,-1.0177773E0,-3.988388E-1,-9.72772E-1,-5.1484805E-1,-6.641106E-1,7.9695724E-2,-4.5891725E-3,-8.626135E-1,-5.0227547E-1,5.335871E-2,5.15978E-1,-2.1732962E-1,6.997494E-1,4.615767E-2,2.7193502E-1,-1.432651E-1,-7.684219E-2,5.0979406E-1,-1.0075021E0,-3.0575517E-1,-7.623179E-1,-1.8976425E-1,4.5325604E-1,1.003833E0,-1.6905859E-1,2.6899225E-1,4.6693894E-1,9.0889096E-1,3.620932E-1,7.8925693E-1,-3.4026226E-1,2.5789728E-4,-1.0923778E-1,-3.209629E-1,-2.175857E-1,9.827052E-2,-2.4511266E-1,-3.197792E-1,-2.761997E-1,-9.556509E-2,7.674962E-2,-2.2981575E-1,1.0593386E-1,-1.817173E-1,-1.5483096E-1,2.2760004E-1,-2.621762E-1,1.846099E-1,-3.239544E-2,-1.7926477E-1,2.0666283E-1,-3.0856807E-2,-2.4095719E-1,1.7790624E-1,-1.2607747E-1,4.0280838E-3,-6.5777395E-3,2.361465E-1,-1.4491516E-2,3.706896E-1,-1.3990139E-2,1.2609482E-1,-1.6427204E-1,-2.2955567E-2,-1.0342105E-1,2.1315286E-1,1.1629956E-1,2.1810822E-1,-2.6296884E-1,-3.673699E-1,8.727872E-2,-2.564612E-1,-2.501622E-1,1.5466301E-1,-6.962738E-2,3.1344104E-1,-1.1222153E-2,1.5983082E-1,9.0330765E-2,3.0736762E-1,-7.7699706E-2,1.2315474E-1,3.316562E-2,1.4799334E-1,2.0860507E-1,3.6381807E-2,2.3988406E-1,3.1050858E-1,8.203521E-2,2.6630306E-1,2.6108053E-1,1.6890675E-1],"categories":[],"categories_nodes":[],"categories_segments":[],"categories_sizes":[],"default_left":[0,0,0,0,0,0,0,0,0,0,0,0,0,0,0,0,0,0,0,0,0,0,0,0,0,0,0,0,0,0,0,0,0,0,0,0,0,0,0,0,0,0,0,0,0,0,0,0,0,0,0,0,0,0,0,0,0,0,0,0,0,0,0,0,0,0,0,0,0,0,0,0,0,0,0,0,0,0,0,0,0,0,0,0,0,0,0,0,0,0,0,0,0,0,0,0,0,0,0,0,0,0,0,0,0,0,0,0,0,0,0,0,0,0,0,0,0,0,0,0,0,0,0,0,0],"id":2,"left_children":[1,3,5,7,9,11,13,15,17,19,21,23,25,27,29,31,33,35,37,39,41,43,45,47,49,51,53,55,57,59,61,63,-1,65,67,69,71,73,75,77,79,81,83,85,87,89,91,93,95,97,99,101,103,105,107,109,111,113,115,117,119,121,123,-1,-1,-1,-1,-1,-1,-1,-1,-1,-1,-1,-1,-1,-1,-1,-1,-1,-1,-1,-1,-1,-1,-1,-1,-1,-1,-1,-1,-1,-1,-1,-1,-1,-1,-1,-1,-1,-1,-1,-1,-1,-1,-1,-1,-1,-1,-1,-1,-1,-1,-1,-1,-1,-1,-1,-1,-1,-1,-1,-1,-1,-1],"loss_changes":[1.3729727E3,2.5689655E2,3.2402823E2,3.0271118E1,8.283824E1,7.157685E1,1.5244476E2,2.624878E0,2.3439636E1,3.6879623E1,3.706958E1,6.708196E1,2.211766E1,9.7145386E1,4.055426E1,5.03479E-1,2.3417816E0,1.5269531E1,1.794236E1,8.9938965E0,3.4417595E1,2.2018597E1,1.1753721E1,4.130794E1,1.1437733E1,8.031883E0,1.6417368E1,3.27442E1,7.770846E1,2.1250519E1,2.9433365E1,2.31604E0,0E0,2.198204E0,2.5040083E0,7.588928E0,6.7520523E0,1.86754E1,7.6314163E0,5.8052225E0,4.6475983E0,1.7191132E1,1.476096E1,5.100024E0,1.9370468E1,5.070492E0,4.906391E0,1.3963276E1,3.4429924E1,8.359855E0,7.0942383E0,1.1283035E0,7.8095236E0,6.2430954E0,1.2917723E1,3.329007E1,1.510231E0,3.0378756E1,4.7535904E1,1.0811293E1,7.48468E0,2.3952194E1,3.8506165E0,0E0,0E0,0E0,0E0,0E0,0E0,0E0,0E0,0E0,0E0,0E0,0E0,0E0,0E0,0E0,0E0,0E0,0E0,0E0,0E0,0E0,0E0,0E0,0E0,0E0,0E0,0E0,0E0,0E0,0E0,0E0,0E0,0E0,0E0,0E0,0E0,0E0,0E0,0E0,0E0,0E0,0E0,0E0,0E0,0E0,0E0,0E0,0E0,0E0,0E0,0E0,0E0,0E0,0E0,0E0,0E0,0E0,0E0,0E0,0E0,0E0,0E0],"parents":[2147483647,0,0,1,1,2,2,3,3,4,4,5,5,6,6,7,7,8,8,9,9,10,10,11,11,12,12,13,13,14,14,15,15,16,16,17,17,18,18,19,19,20,20,21,21,22,22,23,23,24,24,25,25,26,26,27,27,28,28,29,29,30,30,31,31,33,33,34,34,35,35,36,36,37,37,38,38,39,39,40,40,41,41,42,42,43,43,44,44,45,45,46,46,47,47,48,48,49,49,50,50,51,51,52,52,53,53,54,54,55,55,56,56,57,57,58,58,59,59,60,60,61,61,62,62],"right_children":[2,4,6,8,10,12,14,16,18,20,22,24,26,28,30,32,34,36,38,40,42,44,46,48,50,52,54,56,58,60,62,64,-1,66,68,70,72,74,76,78,80,82,84,86,88,90,92,94,96,98,100,102,104,106,108,110,112,114,116,118,120,122,124,-1,-1,-1,-1,-1,-1,-1,-1,-1,-1,-1,-1,-1,-1,-1,-1,-1,-1,-1,-1,-1,-1,-1,-1,-1,-1,-1,-1,-1,-1,-1,-1,-1,-1,-1,-1,-1,-1,-1,-1,-1,-1,-1,-1,-1,-1,-1,-1,-1,-1,-1,-1,-1,-1,-1,-1,-1,-1,-1,-1,-1,-1],"split_conditions":[4E0,3E0,4E1,2E0,4.8E1,1.78E2,2.14E2,5.5E1,2.24E2,1.82E2,2.29E2,2.33E2,1.1E2,1.52E2,1.6E2,1.6E2,2.44E2,5.8E1,1.36E2,1.27E2,1.3E2,1.34E2,1.69E2,1.4E2,2.5E1,3.7E1,2.7E1,1.37E2,1.12E2,1.06E2,5.5E1,2.83E2,-3.8370156E-1,1.33E2,6.2E1,1.54E2,1.74E2,1.33E2,1.72E2,1.7E2,1.56E2,1.42E2,1.42E2,9.9E1,1.22E2,1.01E2,1.41E2,1.13E2,1.6E2,1.28E2,2.53E2,1.93E2,1.86E2,1.47E2,1.51E2,1.53E2,1.34E2,6.1E1,5.2E1,1.5E2,5.1E1,2.58E2,1.82E2,-3.4026226E-1,2.5789728E-4,-1.0923778E-1,-3.209629E-1,-2.175857E-1,9.827052E-2,-2.4511266E-1,-3.197792E-1,-2.761997E-1,-9.556509E-2,7.674962E-2,-2.2981575E-1,1.0593386E-1,-1.817173E-1,-1.5483096E-1,2.2760004E-1,-2.621762E-1,1.846099E-1,-3.239544E-2,-1.7926477E-1,2.0666283E-1,-3.0856807E-2,-2.4095719E-1,1.7790624E-1,-1.2607747E-1,4.0280838E-3,-6.5777395E-3,2.361465E-1,-1.4491516E-2,3.706896E-1,-1.3990139E-2,1.2609482E-1,-1.6427204E-1,-2.2955567E-2,-1.0342105E-1,2.1315286E-1,1.1629956E-1,2.1810822E-1,-2.6296884E-1,-3.673699E-1,8.727872E-2,-2.564612E-1,-2.501622E-1,1.5466301E-1,-6.962738E-2,3.1344104E-1,-1.1222153E-2,1.5983082E-1,9.0330765E-2,3.0736762E-1,-7.7699706E-2,1.2315474E-1,3.316562E-2,1.4799334E-1,2.0860507E-1,3.6381807E-2,2.3988406E-1,3.1050858E-1,8.203521E-2,2.6630306E-1,2.6108053E-1,1.6890675E-1],"split_indices":[2,2,0,2,0,6,4,0,4,4,4,4,3,6,6,6,4,0,3,6,3,6,6,6,0,0,0,3,3,3,0,4,0,6,0,6,4,6,6,4,3,6,6,3,3,3,3,3,4,3,4,6,6,3,3,4,4,0,0,6,0,4,6,0,0,0,0,0,0,0,0,0,0,0,0,0,0,0,0,0,0,0,0,0,0,0,0,0,0,0,0,0,0,0,0,0,0,0,0,0,0,0,0,0,0,0,0,0,0,0,0,0,0,0,0,0,0,0,0,0,0,0,0,0,0],"split_type":[0,0,0,0,0,0,0,0,0,0,0,0,0,0,0,0,0,0,0,0,0,0,0,0,0,0,0,0,0,0,0,0,0,0,0,0,0,0,0,0,0,0,0,0,0,0,0,0,0,0,0,0,0,0,0,0,0,0,0,0,0,0,0,0,0,0,0,0,0,0,0,0,0,0,0,0,0,0,0,0,0,0,0,0,0,0,0,0,0,0,0,0,0,0,0,0,0,0,0,0,0,0,0,0,0,0,0,0,0,0,0,0,0,0,0,0,0,0,0,0,0,0,0,0,0],"sum_hessian":[9.4133955E3,2.7392463E3,6.6741494E3,1.2978585E3,1.4413877E3,2.287543E3,4.3866064E3,3.936516E2,9.042069E2,8.631091E2,5.782786E2,1.8848656E3,4.0267743E2,2.893409E3,1.4931976E3,3.101049E2,8.354672E1,6.6957745E2,2.3462946E2,2.577907E2,6.0531836E2,4.570332E2,1.21245415E2,1.5703696E3,3.14496E2,9.8540344E1,3.041371E2,9.7564197E2,1.917767E3,7.39038E2,7.5415955E2,1.5529507E2,1.5480981E2,7.498911E1,8.557609E0,5.821361E2,8.744134E1,1.9604938E2,3.858008E1,1.2866416E1,2.4492429E2,4.5834775E2,1.4697063E2,4.449447E1,4.1253873E2,7.911029E1,4.2135117E1,2.93982E2,1.2763876E3,3.7472576E1,2.770234E2,7.646435E1,2.2075996E1,6.25748E1,2.4156229E2,8.51768E2,1.23874E2,5.79742E2,1.338025E3,1.3699942E2,6.0203864E2,5.183266E2,2.3583296E2,1.534778E2,1.8172679E0,6.125503E0,6.886361E1,5.90531E0,2.6522982E0,2.2154984E2,3.605863E2,2.7304024E1,6.0137314E1,1.9407032E1,1.7664235E2,2.7925354E1,1.0654725E1,7.89752E0,4.968896E0,2.4347035E2,1.4539329E0,8.961388E1,3.6873386E2,2.8325636E1,1.18645E2,1.935116E0,4.255935E1,2.1906795E2,1.934708E2,8.627274E0,7.048302E1,3.9923927E1,2.2111902E0,9.363554E1,2.0034647E2,1.7983818E2,1.0965494E3,2.8378881E1,9.093695E0,1.7911133E2,9.7912094E1,5.083655E1,2.5627792E1,1.0805079E1,1.1270916E1,5.9585644E1,2.9891577E0,2.3433997E2,7.222315E0,1.18856224E2,7.3291174E2,3.9935956E0,1.198804E2,5.0234015E2,7.740182E1,7.850347E2,5.529903E2,8.188161E1,5.5117805E1,3.265104E2,2.755282E2,4.4482477E2,7.3501816E1,1.715548E2,6.427816E1],"tree_param":{"num_deleted":"0","num_feature":"7","num_nodes":"125","size_leaf_vector":"1"}},{"base_weights":[-2.9541454E-3,-4.6317685E-1,1.771276E-1,-7.531358E-1,-2.2482155E-1,1.914882E-2,3.6517695E-1,-1.0011357E0,-6.516387E-1,-5.3829443E-1,-9.018617E-2,-3.078371E-1,9.0360574E-2,1.2612733E-1,4.7172207E-1,-1.1339005E0,-9.0093446E-1,-8.449815E-1,-5.01942E-1,-6.719028E-1,-8.3433256E-2,-1.5103616E-1,4.4496644E-1,-3.970568E-1,1.3998006E-1,-1.7490435E-1,1.8420756E-1,2.1665643E-1,-2.063356E-1,5.354796E-1,1.0068416E-1,-1.1455526E0,-5.219883E-1,-1.0465152E0,-7.715705E-1,-1.0877106E0,-6.824299E-1,-3.5351947E-1,-7.5815225E-1,4.646586E-2,-7.161966E-1,6.238145E-1,-2.0768903E-1,-4.0197888E-1,1.568337E-3,3.3615813E-1,1.2933419E0,-3.4333462E-1,-8.09473E-1,2.1936227E-1,-7.7544737E-1,1.4820981E-1,-2.8126955E-1,-1.1495852E-1,2.7373832E-1,1.3122962E-1,5.608058E-1,-2.814224E-1,6.0848206E-1,3.0900708E-1,6.237539E-1,-9.5763765E-2,3.8710624E-1,-3.4627903E-1,-1.4347991E-1,1.7818373E-2,-2.4952246E-1,-1.6640782E-1,-3.25262E-1,-3.379155E-1,-2.0349513E-1,-3.311707E-1,-2.0598361E-1,-2.2005259E-1,1.1678411E-1,-1.2747495E-1,1.1048403E-1,-2.3539399E-1,1.0558942E-1,-1.368627E-1,1.8802284E-1,-2.912794E-1,-1.7985779E-1,-2.8135339E-2,3.7568548E-1,-1.184364E-1,4.349762E-2,-3.024947E-1,-9.975624E-2,7.020915E-2,-4.929951E-2,1.4247532E-1,-2.0416878E-2,4.1784233E-1,1.0651151E-1,-1.6919294E-1,-7.286943E-2,-2.5079432E-1,5.3970525E-3,1.5002189E-2,2.0388906E-1,-3.5794842E-1,-5.982843E-2,1.0447202E-1,-9.67191E-3,-1.6211723E-1,-4.38915E-2,-9.0680875E-2,5.2631058E-2,1.1694263E-1,5.3771175E-3,2.1343542E-2,1.7527983E-1,1.3099983E-1,2.555669E-1,-6.125561E-2,-2.4377362E-1,-1.5647603E-2,2.990807E-1,5.5668786E-2,2.0010988E-1,1.6917215E-1,2.5958884E-1,-6.659448E-2,1.3621828E-1,-7.934025E-2,1.4966197E-1],"categories":[],"categories_nodes":[],"categories_segments":[],"categories_sizes":[],"default_left":[0,0,0,0,0,0,0,0,0,0,0,0,0,0,0,0,0,0,0,0,0,0,0,0,0,0,0,0,0,0,0,0,0,0,0,0,0,0,0,0,0,0,0,0,0,0,0,0,0,0,0,0,0,0,0,0,0,0,0,0,0,0,0,0,0,0,0,0,0,0,0,0,0,0,0,0,0,0,0,0,0,0,0,0,0,0,0,0,0,0,0,0,0,0,0,0,0,0,0,0,0,0,0,0,0,0,0,0,0,0,0,0,0,0,0,0,0,0,0,0,0,0,0,0,0,0,0],"id":3,"left_children":[1,3,5,7,9,11,13,15,17,19,21,23,25,27,29,31,33,35,37,39,41,43,45,47,49,51,53,55,57,59,61,63,65,67,69,71,73,75,77,79,81,83,85,87,89,91,93,95,97,99,101,103,105,107,109,111,113,115,117,119,121,123,125,-1,-1,-1,-1,-1,-1,-1,-1,-1,-1,-1,-1,-1,-1,-1,-1,-1,-1,-1,-1,-1,-1,-1,-1,-1,-1,-1,-1,-1,-1,-1,-1,-1,-1,-1,-1,-1,-1,-1,-1,-1,-1,-1,-1,-1,-1,-1,-1,-1,-1,-1,-1,-1,-1,-1,-1,-1,-1,-1,-1,-1,-1,-1,-1],"loss_changes":[7.489385E2,1.7548248E2,1.9295038E2,2.8199097E1,5.88817E1,8.224484E1,7.546561E1,3.381836E0,2.3199036E1,2.5427452E1,3.1914164E1,2.5293365E1,7.223057E1,2.7600677E1,4.8459747E1,3.8955688E-1,2.8367615E0,1.3253265E1,1.7319183E1,1.0341949E1,8.596416E0,3.365724E1,8.805683E0,1.1397995E1,7.849777E0,2.6107244E1,5.7424675E1,2.1096886E1,1.2191062E1,3.4788788E1,1.7026909E1,2.3310852E-1,8.463069E-1,1.034317E0,2.7519913E0,1.5509033E-1,1.2061951E1,1.5344547E1,5.240013E0,6.0482397E0,8.489075E0,6.723206E0,5.514228E0,1.366198E1,2.1153809E1,5.0844545E0,5.347309E-1,1.0233913E1,1.3310738E0,7.6071053E0,1.8441668E0,6.8147173E0,1.9887836E1,2.6938E1,4.8971123E1,1.5697303E1,4.791523E0,7.2418394E0,4.3871665E0,2.165324E1,1.769812E1,1.2586007E1,9.09239E0,0E0,0E0,0E0,0E0,0E0,0E0,0E0,0E0,0E0,0E0,0E0,0E0,0E0,0E0,0E0,0E0,0E0,0E0,0E0,0E0,0E0,0E0,0E0,0E0,0E0,0E0,0E0,0E0,0E0,0E0,0E0,0E0,0E0,0E0,0E0,0E0,0E0,0E0,0E0,0E0,0E0,0E0,0E0,0E0,0E0,0E0,0E0,0E0,0E0,0E0,0E0,0E0,0E0,0E0,0E0,0E0,0E0,0E0,0E0,0E0,0E0,0E0,0E0,0E0],"parents":[2147483647,0,0,1,1,2,2,3,3,4,4,5,5,6,6,7,7,8,8,9,9,10,10,11,11,12,12,13,13,14,14,15,15,16,16,17,17,18,18,19,19,20,20,21,21,22,22,23,23,24,24,25,25,26,26,27,27,28,28,29,29,30,30,31,31,32,32,33,33,34,34,35,35,36,36,37,37,38,38,39,39,40,40,41,41,42,42,43,43,44,44,45,45,46,46,47,47,48,48,49,49,50,50,51,51,52,52,53,53,54,54,55,55,56,56,57,57,58,58,59,59,60,60,61,61,62,62],"right_children":[2,4,6,8,10,12,14,16,18,20,22,24,26,28,30,32,34,36,38,40,42,44,46,48,50,52,54,56,58,60,62,64,66,68,70,72,74,76,78,80,82,84,86,88,90,92,94,96,98,100,102,104,106,108,110,112,114,116,118,120,122,124,126,-1,-1,-1,-1,-1,-1,-1,-1,-1,-1,-1,-1,-1,-1,-1,-1,-1,-1,-1,-1,-1,-1,-1,-1,-1,-1,-1,-1,-1,-1,-1,-1,-1,-1,-1,-1,-1,-1,-1,-1,-1,-1,-1,-1,-1,-1,-1,-1,-1,-1,-1,-1,-1,-1,-1,-1,-1,-1,-1,-1,-1,-1,-1,-1],"split_conditions":[4E0,3E0,4.6E1,2E0,3.9E1,1.06E2,1.81E2,4.3E1,4.3E1,2.28E2,2.45E2,2.34E2,1.78E2,1.76E2,1.82E2,1.49E2,1.98E2,1.16E2,1.66E2,1.27E2,1.38E2,1.16E2,1.38E2,1.84E2,1.9E2,1.46E2,3.1E1,1.32E2,6.5E1,1.11E2,1.23E2,2.83E2,3.4E1,1.33E2,1.06E2,1E0,2.63E2,2.49E2,1.52E2,1.93E2,1.13E2,3.2E1,1.25E2,1.54E2,1.56E2,1.72E2,1.52E2,9.6E1,2.12E2,2.61E2,1.99E2,1E0,1.53E2,1.27E2,1.7E2,6.4E1,1.71E2,1.99E2,1.15E2,5.9E1,1.36E2,2.39E2,1.9E2,-3.4627903E-1,-1.4347991E-1,1.7818373E-2,-2.4952246E-1,-1.6640782E-1,-3.25262E-1,-3.379155E-1,-2.0349513E-1,-3.311707E-1,-2.0598361E-1,-2.2005259E-1,1.1678411E-1,-1.2747495E-1,1.1048403E-1,-2.3539399E-1,1.0558942E-1,-1.368627E-1,1.8802284E-1,-2.912794E-1,-1.7985779E-1,-2.8135339E-2,3.7568548E-1,-1.184364E-1,4.349762E-2,-3.024947E-1,-9.975624E-2,7.020915E-2,-4.929951E-2,1.4247532E-1,-2.0416878E-2,4.1784233E-1,1.0651151E-1,-1.6919294E-1,-7.286943E-2,-2.5079432E-1,5.3970525E-3,1.5002189E-2,2.0388906E-1,-3.5794842E-1,-5.982843E-2,1.0447202E-1,-9.67191E-3,-1.6211723E-1,-4.38915E-2,-9.0680875E-2,5.2631058E-2,1.1694263E-1,5.3771175E-3,2.1343542E-2,1.7527983E-1,1.3099983E-1,2.555669E-1,-6.125561E-2,-2.4377362E-1,-1.5647603E-2,2.990807E-1,5.5668786E-2,2.0010988E-1,1.6917215E-1,2.5958884E-1,-6.659448E-2,1.3621828E-1,-7.934025E-2,1.4966197E-1],"split_indices":[2,2,0,2,0,3,4,0,0,4,4,4,4,6,6,3,4,3,6,6,6,3,3,6,6,6,0,3,0,3,3,4,0,6,3,5,4,4,3,4,3,0,3,4,6,6,3,3,6,4,6,1,4,3,6,0,4,6,3,0,3,4,4,0,0,0,0,0,0,0,0,0,0,0,0,0,0,0,0,0,0,0,0,0,0,0,0,0,0,0,0,0,0,0,0,0,0,0,0,0,0,0,0,0,0,0,0,0,0,0,0,0,0,0,0,0,0,0,0,0,0,0,0,0,0,0,0],"split_type":[0,0,0,0,0,0,0,0,0,0,0,0,0,0,0,0,0,0,0,0,0,0,0,0,0,0,0,0,0,0,0,0,0,0,0,0,0,0,0,0,0,0,0,0,0,0,0,0,0,0,0,0,0,0,0,0,0,0,0,0,0,0,0,0,0,0,0,0,0,0,0,0,0,0,0,0,0,0,0,0,0,0,0,0,0,0,0,0,0,0,0,0,0,0,0,0,0,0,0,0,0,0,0,0,0,0,0,0,0,0,0,0,0,0,0,0,0,0,0,0,0,0,0,0,0,0,0],"sum_hessian":[9.03468E3,2.5405068E3,6.4941733E3,1.1452057E3,1.3953011E3,3.529864E3,2.964309E3,3.3000415E2,8.152015E2,4.1832138E2,9.769798E2,6.306696E2,2.8991946E3,9.145547E2,2.0497544E3,1.3750116E2,1.92503E2,3.5371347E2,4.61488E2,3.2297528E2,9.5346085E1,8.7787775E2,9.910206E1,5.2598895E2,1.0468068E2,7.5742303E2,2.1417715E3,7.190947E2,1.9545995E2,1.7488042E3,3.0095016E2,1.3407599E2,3.4251604E0,8.7238655E1,1.0526436E2,1.3958604E2,2.1412743E2,2.937174E2,1.677706E2,1.8754883E1,3.042204E2,1.3647257E1,8.169882E1,3.3135828E2,5.465195E2,8.9074104E1,1.0027955E1,4.6699033E2,5.8998627E1,9.702724E1,7.6534424E0,1.8748657E2,5.6993646E2,4.9326108E2,1.6485104E3,5.772E2,1.4189473E2,1.7956715E2,1.589279E1,4.9173398E2,1.2570703E3,1.7890825E2,1.220419E2,1.3162793E2,2.4480622E0,1.4715072E0,1.9536531E0,7.3284826E0,7.991017E1,1.960222E1,8.566214E1,1.3248561E2,7.100434E0,2.0468741E2,9.440013E0,2.676537E2,2.6063734E1,1.6414622E2,3.6243668E0,1.0163974E1,8.590909E0,9.326556E1,2.1095485E2,6.769029E0,6.8782277E0,5.3302307E1,2.8396517E1,3.2667683E1,2.986906E2,2.2742987E2,3.190896E2,6.618057E1,2.2893534E1,8.628855E0,1.3990996E0,1.4463554E2,3.223548E2,5.7157284E1,1.8413432E0,7.173945E1,2.5287788E1,3.8152978E0,3.8381448E0,8.847796E1,9.900862E1,1.9416028E2,3.7577615E2,2.9982608E2,1.9343498E2,1.1336273E3,5.14883E2,5.106337E2,6.656633E1,1.0122503E2,4.06697E1,1.5797934E2,2.1587828E1,6.205263E0,9.687527E0,3.6678702E2,1.2494695E2,1.01012646E3,2.4694377E2,1.4599084E2,3.2917408E1,1.766911E1,1.04372795E2],"tree_param":{"num_deleted":"0","num_feature":"7","num_nodes":"127","size_leaf_vector":"1"}},{"base_weights":[-3.5067792E-3,-6.1536723E-1,7.736365E-2,-8.779723E-1,-5.165782E-1,2.03735E-2,3.988712E-1,-9.9271727E-1,-7.362753E-1,-8.49596E-1,-4.2390767E-1,-2.7282236E-2,3.894519E-1,9.892188E-2,4.6469963E-1,-1.0478092E0,-8.11438E-1,-9.1732717E-1,-5.8668154E-1,-8.765797E-1,2.923899E-1,-7.355964E-1,-2.8424245E-1,-2.9812112E-1,2.857113E-2,-3.225547E-1,4.3340114E-1,5.353241E-1,-5.885498E-2,6.1463106E-1,3.5921925E-1,-5.2601755E-2,-1.0548813E0,-3.3041432E-1,-6.516364E-1,-4.225275E-1,-9.5954776E-1,-6.8648565E-1,-4.133814E-2,-9.056336E-1,3.4580323E-1,2.2317566E-1,-1.19638465E-1,-8.6709857E-1,-4.0208745E-1,-4.634666E-2,-4.5994666E-1,-1.9710495E-1,-5.045089E-1,-5.468248E-2,2.4103743E-1,-4.0261826E-1,6.878204E-1,-1.0262144E-1,4.750313E-1,-3.16549E-1,5.8744913E-1,-5.8106863E-1,4.737783E-2,5.426782E-1,9.029987E-1,-5.303696E-1,3.8319963E-1,-3.1787857E-1,-8.7820366E-2,-2.1831636E-1,1.06785126E-1,-2.4330911E-1,-1.5230331E-2,-2.9213226E-1,-4.5440577E-2,2.5990607E-2,-2.353784E-1,-1.02640614E-1,2.4884005E-1,-2.7854854E-1,-4.239837E-2,3.48523E-1,-9.0149574E-2,-1.5912527E-1,-2.956786E-1,-1.7848192E-1,7.352311E-2,1.1201323E-1,-4.2360593E-2,-1.8323292E-1,-5.0959546E-2,-1.5998219E-1,-3.490472E-2,-2.7068484E-1,-1.2488573E-1,3.3905724E-4,-9.812704E-2,1.4524828E-1,4.470136E-2,-2.8341416E-1,-7.668623E-2,3.3140424E-1,7.7083968E-3,-1.371641E-1,5.133379E-2,2.2712407E-1,1.1806519E-1,3.1366247E-1,1.3385801E-1,-3.1046993E-1,-9.5493965E-2,3.775734E-2,-1.605519E-1,1.231541E-1,2.0714335E-1,-8.5578606E-2,2.7953604E-1,-2.5753578E-2,-2.6622722E-1,3.789773E-2,1.3783085E-1],"categories":[],"categories_nodes":[],"categories_segments":[],"categories_sizes":[],"default_left":[0,0,0,0,0,0,0,0,0,0,0,0,0,0,0,0,0,0,0,0,0,0,0,0,0,0,0,0,0,0,0,0,0,0,0,0,0,0,0,0,0,0,0,0,0,0,0,0,0,0,0,0,0,0,0,0,0,0,0,0,0,0,0,0,0,0,0,0,0,0,0,0,0,0,0,0,0,0,0,0,0,0,0,0,0,0,0,0,0,0,0,0,0,0,0,0,0,0,0,0,0,0,0,0,0,0,0,0,0,0,0,0,0,0,0,0,0],"id":4,"left_children":[1,3,5,7,9,11,13,15,17,19,21,23,25,27,29,31,33,35,37,39,41,43,45,47,49,51,53,55,57,59,61,-1,63,-1,65,67,69,71,73,75,77,-1,-1,79,81,83,85,87,89,91,93,95,97,99,101,-1,103,105,107,109,111,113,115,-1,-1,-1,-1,-1,-1,-1,-1,-1,-1,-1,-1,-1,-1,-1,-1,-1,-1,-1,-1,-1,-1,-1,-1,-1,-1,-1,-1,-1,-1,-1,-1,-1,-1,-1,-1,-1,-1,-1,-1,-1,-1,-1,-1,-1,-1,-1,-1,-1,-1,-1,-1,-1,-1],"loss_changes":[4.3026273E2,2.5881165E1,1.4071732E2,3.7575226E0,2.2478775E1,1.147767E2,2.2786835E1,6.444702E-1,2.912178E0,5.190155E0,2.5080757E1,8.744042E1,2.3490982E1,1.44482565E1,1.4771515E1,5.020981E-1,1.103939E0,7.6157E-1,3.919321E0,5.8771667E0,1.6841561E0,7.5077667E0,1.6815899E1,2.0503685E1,8.478617E1,3.8328152E0,1.5742142E1,5.237419E0,8.60878E0,7.6040344E0,1.2125969E1,0E0,8.592224E-2,0E0,2.3898687E0,8.512136E-1,4.351654E-1,4.713541E0,3.5015793E0,2.5475082E0,2.6488004E0,0E0,0E0,4.5684204E0,6.701086E0,6.909842E0,1.0028465E1,1.7994633E1,1.0998062E1,5.2363876E1,3.012156E1,3.0543938E0,9.643575E-1,5.0775967E0,1.470369E1,0E0,3.0647736E0,2.797595E0,5.9860945E0,5.8639297E0,2.8790245E0,2.3188872E0,1.0610977E1,0E0,0E0,0E0,0E0,0E0,0E0,0E0,0E0,0E0,0E0,0E0,0E0,0E0,0E0,0E0,0E0,0E0,0E0,0E0,0E0,0E0,0E0,0E0,0E0,0E0,0E0,0E0,0E0,0E0,0E0,0E0,0E0,0E0,0E0,0E0,0E0,0E0,0E0,0E0,0E0,0E0,0E0,0E0,0E0,0E0,0E0,0E0,0E0,0E0,0E0,0E0,0E0,0E0,0E0],"parents":[2147483647,0,0,1,1,2,2,3,3,4,4,5,5,6,6,7,7,8,8,9,9,10,10,11,11,12,12,13,13,14,14,15,15,16,16,17,17,18,18,19,19,20,20,21,21,22,22,23,23,24,24,25,25,26,26,27,27,28,28,29,29,30,30,32,32,34,34,35,35,36,36,37,37,38,38,39,39,40,40,43,43,44,44,45,45,46,46,47,47,48,48,49,49,50,50,51,51,52,52,53,53,54,54,56,56,57,57,58,58,59,59,60,60,61,61,62,62],"right_children":[2,4,6,8,10,12,14,16,18,20,22,24,26,28,30,32,34,36,38,40,42,44,46,48,50,52,54,56,58,60,62,-1,64,-1,66,68,70,72,74,76,78,-1,-1,80,82,84,86,88,90,92,94,96,98,100,102,-1,104,106,108,110,112,114,116,-1,-1,-1,-1,-1,-1,-1,-1,-1,-1,-1,-1,-1,-1,-1,-1,-1,-1,-1,-1,-1,-1,-1,-1,-1,-1,-1,-1,-1,-1,-1,-1,-1,-1,-1,-1,-1,-1,-1,-1,-1,-1,-1,-1,-1,-1,-1,-1,-1,-1,-1,-1,-1,-1],"split_conditions":[3E0,2E0,5.7E1,4.7E1,1.73E2,1.38E2,1.67E2,1.29E2,1.98E2,1.5E2,1.13E2,4E0,1.42E2,1.48E2,1.57E2,1.13E2,3.3E1,1.33E2,1.35E2,6.9E1,1.54E2,5.2E1,1.56E2,1.68E2,2.19E2,1.57E2,2.6E1,9.1E1,1.35E2,6.7E1,9.1E1,-5.2601755E-2,2.88E2,-3.3041432E-1,2.5E2,5.5E1,7.3E1,2.03E2,1.78E2,1.95E2,1.5E2,2.2317566E-1,-1.19638465E-1,1.46E2,1.1E2,1.3E2,5E1,1.71E2,3.3E1,1.79E2,1.49E2,3.2E1,1.32E2,1.43E2,1.45E2,-3.16549E-1,1.37E2,1.61E2,1.9E2,1.2E2,1.16E2,1.74E2,5.9E1,-3.1787857E-1,-8.7820366E-2,-2.1831636E-1,1.06785126E-1,-2.4330911E-1,-1.5230331E-2,-2.9213226E-1,-4.5440577E-2,2.5990607E-2,-2.353784E-1,-1.02640614E-1,2.4884005E-1,-2.7854854E-1,-4.239837E-2,3.48523E-1,-9.0149574E-2,-1.5912527E-1,-2.956786E-1,-1.7848192E-1,7.352311E-2,1.1201323E-1,-4.2360593E-2,-1.8323292E-1,-5.0959546E-2,-1.5998219E-1,-3.490472E-2,-2.7068484E-1,-1.2488573E-1,3.3905724E-4,-9.812704E-2,1.4524828E-1,4.470136E-2,-2.8341416E-1,-7.668623E-2,3.3140424E-1,7.7083968E-3,-1.371641E-1,5.133379E-2,2.2712407E-1,1.1806519E-1,3.1366247E-1,1.3385801E-1,-3.1046993E-1,-9.5493965E-2,3.775734E-2,-1.605519E-1,1.231541E-1,2.0714335E-1,-8.5578606E-2,2.7953604E-1,-2.5753578E-2,-2.6622722E-1,3.789773E-2,1.3783085E-1],"split_indices":[2,2,0,0,4,3,4,3,4,3,3,2,4,6,6,6,0,6,3,0,3,0,6,6,4,3,0,3,4,0,3,0,4,0,4,0,0,4,6,6,4,0,0,6,3,6,0,4,0,6,6,0,4,3,6,0,4,6,6,3,6,6,0,0,0,0,0,0,0,0,0,0,0,0,0,0,0,0,0,0,0,0,0,0,0,0,0,0,0,0,0,0,0,0,0,0,0,0,0,0,0,0,0,0,0,0,0,0,0,0,0,0,0,0,0,0,0],"split_type":[0,0,0,0,0,0,0,0,0,0,0,0,0,0,0,0,0,0,0,0,0,0,0,0,0,0,0,0,0,0,0,0,0,0,0,0,0,0,0,0,0,0,0,0,0,0,0,0,0,0,0,0,0,0,0,0,0,0,0,0,0,0,0,0,0,0,0,0,0,0,0,0,0,0,0,0,0,0,0,0,0,0,0,0,0,0,0,0,0,0,0,0,0,0,0,0,0,0,0,0,0,0,0,0,0,0,0,0,0,0,0,0,0,0,0,0,0],"sum_hessian":[8.693479E3,1.014118E3,7.679361E3,2.7505865E2,7.3905927E2,6.523988E3,1.1553729E3,1.4866504E2,1.2639362E2,1.5911194E2,5.799473E2,5.778756E3,7.452321E2,2.0838095E2,9.46992E2,1.1034914E2,3.831591E1,5.4862267E1,7.153136E1,1.5566615E2,3.4457858E0,1.7813634E2,4.01811E2,9.872309E2,4.791525E3,4.2957233E1,7.022749E2,5.469756E1,1.536834E2,3.8909683E2,5.578952E2,1.0946776E0,1.09254456E2,1.15206785E1,2.6795233E1,5.1786995E0,4.9683567E1,6.0246704E1,1.1284652E1,1.5230525E2,3.360911E0,2.0380788E0,1.407707E0,1.2661304E2,5.152329E1,1.7123294E2,2.3057806E2,6.6412897E2,3.2310193E2,3.4431072E3,1.3484177E3,4.0360523E1,2.5967085E0,5.0505833E1,6.5176904E2,1.1250827E0,5.3572475E1,2.5223122E1,1.2846027E2,3.13704E2,7.539281E1,1.4089953E1,5.4380524E2,1.08195E2,1.0594546E0,2.5172194E1,1.6230391E0,1.954537E0,3.2241626E0,4.862251E1,1.0610589E0,6.797537E0,5.344917E1,8.838666E0,2.4459858E0,1.4767331E2,4.631936E0,1.133001E0,2.22791E0,3.438688E1,9.222616E1,3.975667E1,1.176662E1,3.1023071E1,1.4020987E2,1.5097313E2,7.960494E1,1.275525E2,5.365765E2,5.697774E1,2.6612418E2,2.8584458E3,5.846614E2,3.6910132E2,9.7931635E2,7.4520836E0,3.2908443E1,1.183326E0,1.4133825E0,2.1711151E1,2.879468E1,1.4422754E2,5.075415E2,1.1117303E1,4.2455173E1,8.171196E0,1.7051926E1,1.1389988E2,1.4560388E1,1.6760587E2,1.4609816E2,1.5726061E0,7.38202E1,6.828749E0,7.2612047E0,1.2506482E2,4.1874045E2],"tree_param":{"num_deleted":"0","num_feature":"7","num_nodes":"117","size_leaf_vector":"1"}},{"base_weights":[-3.8952285E-3,-5.008212E-1,5.586579E-2,-7.706987E-1,-4.0797666E-1,-2.0412324E-1,1.1463627E-1,-9.4535285E-1,-6.5304166E-1,-8.04457E-1,-3.446338E-1,1.03102446E-1,-2.7601713E-1,1.8367503E-2,2.366214E-1,-9.685287E-1,-4.159929E-1,-7.476048E-1,-3.953191E-1,-8.329105E-1,1.9022577E-1,-5.3880763E-1,-1.8790007E-1,-7.908588E-1,1.594946E-1,-4.8514524E-1,-1.8970203E-1,-2.0488799E-2,3.8392845E-1,1.5337929E-1,4.0380457E-1,-9.811593E-1,-3.233222E-1,-2.2308382E-1,-6.6336036E-2,-7.70328E-1,1.817479E-1,-7.2206914E-1,-2.436182E-3,-4.5269328E-1,-9.0719104E-1,2.8195074E-1,-2.128966E-1,-7.652297E-1,-3.727665E-1,-2.5999036E-1,2.5316846E-1,2.810858E-1,-1.0072521E0,6.2194526E-2,5.071153E-1,-6.67172E-1,-4.0408057E-1,-4.857258E-1,-1.2275745E-1,9.933763E-2,-1.1937307E-1,3.1609938E-1,7.715838E-1,9.279146E-2,3.3332992E-1,1.730454E-1,4.632472E-1,-1.5524352E-1,-2.9945529E-1,-2.0092021E-1,4.802201E-2,1.2518978E-1,-1.8651524E-1,-9.051416E-2,-2.4964514E-1,-2.5453243E-1,3.3092078E-2,-8.1818E-2,1.5089624E-1,-1.8414594E-1,1.3433811E-1,-2.811727E-1,-9.556434E-3,-3.021329E-1,-1.9707814E-1,-6.27727E-2,-2.0474431E-1,-8.974316E-2,1.1548914E-1,2.723775E-1,2.2679826E-2,-6.1152723E-2,1.9437851E-1,-1.3467814E-1,-3.580387E-1,-7.1364073E-3,1.17520615E-1,-7.599792E-2,1.9031818E-1,-2.3892935E-1,-1.1387116E-1,-1.8196899E-1,-8.35781E-2,-1.9961707E-1,-6.3133776E-2,-4.9180303E-2,1.018915E-1,1.783746E-2,1.6255641E-1,-1.1396015E-1,-2.1176785E-2,1.826578E-1,6.445823E-2,1.8134956E-1,3.281444E-1,8.764581E-2,1.2543097E-2,1.2240227E-1,1.17443325E-2,-2.078947E-2,1.098481E-1,1.7674349E-1,1.0866734E-1],"categories":[],"categories_nodes":[],"categories_segments":[],"categories_sizes":[],"default_left":[0,0,0,0,0,0,0,0,0,0,0,0,0,0,0,0,0,0,0,0,0,0,0,0,0,0,0,0,0,0,0,0,0,0,0,0,0,0,0,0,0,0,0,0,0,0,0,0,0,0,0,0,0,0,0,0,0,0,0,0,0,0,0,0,0,0,0,0,0,0,0,0,0,0,0,0,0,0,0,0,0,0,0,0,0,0,0,0,0,0,0,0,0,0,0,0,0,0,0,0,0,0,0,0,0,0,0,0,0,0,0,0,0,0,0,0,0,0,0],"id":5,"left_children":[1,3,5,7,9,11,13,15,17,19,21,23,25,27,29,31,33,35,37,39,41,43,45,47,49,51,53,55,57,59,61,63,65,-1,67,69,-1,71,73,75,77,-1,-1,79,81,83,85,87,89,91,93,95,97,99,101,103,105,107,109,111,113,115,117,-1,-1,-1,-1,-1,-1,-1,-1,-1,-1,-1,-1,-1,-1,-1,-1,-1,-1,-1,-1,-1,-1,-1,-1,-1,-1,-1,-1,-1,-1,-1,-1,-1,-1,-1,-1,-1,-1,-1,-1,-1,-1,-1,-1,-1,-1,-1,-1,-1,-1,-1,-1,-1,-1,-1,-1],"loss_changes":[2.5078545E2,2.2401062E1,1.1520707E2,4.1279907E0,1.6716057E1,3.073526E1,7.22071E1,7.100296E-1,3.1459007E0,2.7752876E0,1.7707855E1,1.3453244E1,2.024887E1,4.8841263E1,3.768306E1,3.848877E-1,5.873497E-1,3.6092644E0,5.136676E0,2.1333046E0,2.9506292E0,9.521004E0,1.041068E1,3.9607687E0,8.40767E0,4.578865E0,1.5780001E1,3.6844955E1,8.442818E0,1.9728E1,1.2277893E1,1.4665985E-1,6.3397133E-1,0E0,1.2764919E0,2.6731453E0,0E0,2.3918953E0,2.7570584E0,2.7004428E0,1.9261322E0,0E0,0E0,2.2043533E0,7.5772877E0,7.189083E0,5.3041697E0,7.44879E-1,8.583784E-1,5.5652556E0,5.4284067E0,3.4042892E0,5.671768E0,7.1342278E0,1.2492767E1,2.4779865E1,2.16218E1,8.252821E0,1.950182E0,1.3781693E1,1.0003971E1,8.736601E0,8.890503E0,0E0,0E0,0E0,0E0,0E0,0E0,0E0,0E0,0E0,0E0,0E0,0E0,0E0,0E0,0E0,0E0,0E0,0E0,0E0,0E0,0E0,0E0,0E0,0E0,0E0,0E0,0E0,0E0,0E0,0E0,0E0,0E0,0E0,0E0,0E0,0E0,0E0,0E0,0E0,0E0,0E0,0E0,0E0,0E0,0E0,0E0,0E0,0E0,0E0,0E0,0E0,0E0,0E0,0E0,0E0,0E0],"parents":[2147483647,0,0,1,1,2,2,3,3,4,4,5,5,6,6,7,7,8,8,9,9,10,10,11,11,12,12,13,13,14,14,15,15,16,16,17,17,18,18,19,19,20,20,21,21,22,22,23,23,24,24,25,25,26,26,27,27,28,28,29,29,30,30,31,31,32,32,34,34,35,35,37,37,38,38,39,39,40,40,43,43,44,44,45,45,46,46,47,47,48,48,49,49,50,50,51,51,52,52,53,53,54,54,55,55,56,56,57,57,58,58,59,59,60,60,61,61,62,62],"right_children":[2,4,6,8,10,12,14,16,18,20,22,24,26,28,30,32,34,36,38,40,42,44,46,48,50,52,54,56,58,60,62,64,66,-1,68,70,-1,72,74,76,78,-1,-1,80,82,84,86,88,90,92,94,96,98,100,102,104,106,108,110,112,114,116,118,-1,-1,-1,-1,-1,-1,-1,-1,-1,-1,-1,-1,-1,-1,-1,-1,-1,-1,-1,-1,-1,-1,-1,-1,-1,-1,-1,-1,-1,-1,-1,-1,-1,-1,-1,-1,-1,-1,-1,-1,-1,-1,-1,-1,-1,-1,-1,-1,-1,-1,-1,-1,-1,-1,-1,-1],"split_conditions":[3E0,2E0,3.4E1,4.3E1,1.64E2,1.42E2,1.22E2,1.45E2,2.24E2,6.8E1,1.19E2,1.45E2,1.12E2,2.45E2,2.13E2,2.83E2,3.3E1,7.8E1,1.23E2,1.41E2,1.48E2,4.3E1,5.9E1,1.22E2,3.2E1,1E2,2.3E1,1.58E2,2.78E2,5.4E1,4E0,1.41E2,1.16E2,-2.2308382E-1,4E1,1.35E2,1.817479E-1,6.4E1,2.53E2,1.39E2,1.96E2,2.8195074E-1,-2.128966E-1,3.1E1,1.67E2,1E0,1.4E2,1.17E2,1.23E2,1.33E2,1.03E2,1.73E2,1.92E2,1.27E2,2.49E2,6.2E1,4E0,1.48E2,2.93E2,1.44E2,1.79E2,2.29E2,1.59E2,-1.5524352E-1,-2.9945529E-1,-2.0092021E-1,4.802201E-2,1.2518978E-1,-1.8651524E-1,-9.051416E-2,-2.4964514E-1,-2.5453243E-1,3.3092078E-2,-8.1818E-2,1.5089624E-1,-1.8414594E-1,1.3433811E-1,-2.811727E-1,-9.556434E-3,-3.021329E-1,-1.9707814E-1,-6.27727E-2,-2.0474431E-1,-8.974316E-2,1.1548914E-1,2.723775E-1,2.2679826E-2,-6.1152723E-2,1.9437851E-1,-1.3467814E-1,-3.580387E-1,-7.1364073E-3,1.17520615E-1,-7.599792E-2,1.9031818E-1,-2.3892935E-1,-1.1387116E-1,-1.8196899E-1,-8.35781E-2,-1.9961707E-1,-6.3133776E-2,-4.9180303E-2,1.018915E-1,1.783746E-2,1.6255641E-1,-1.1396015E-1,-2.1176785E-2,1.826578E-1,6.445823E-2,1.8134956E-1,3.281444E-1,8.764581E-2,1.2543097E-2,1.2240227E-1,1.17443325E-2,-2.078947E-2,1.098481E-1,1.7674349E-1,1.0866734E-1],"split_indices":[2,2,0,0,4,6,3,3,4,0,3,4,3,4,4,4,0,0,3,6,4,0,0,6,0,3,0,6,4,0,2,4,3,0,0,6,0,0,4,6,6,0,0,0,6,5,6,6,4,3,3,6,4,3,4,0,2,6,4,6,6,4,6,0,0,0,0,0,0,0,0,0,0,0,0,0,0,0,0,0,0,0,0,0,0,0,0,0,0,0,0,0,0,0,0,0,0,0,0,0,0,0,0,0,0,0,0,0,0,0,0,0,0,0,0,0,0,0,0],"split_type":[0,0,0,0,0,0,0,0,0,0,0,0,0,0,0,0,0,0,0,0,0,0,0,0,0,0,0,0,0,0,0,0,0,0,0,0,0,0,0,0,0,0,0,0,0,0,0,0,0,0,0,0,0,0,0,0,0,0,0,0,0,0,0,0,0,0,0,0,0,0,0,0,0,0,0,0,0,0,0,0,0,0,0,0,0,0,0,0,0,0,0,0,0,0,0,0,0,0,0,0,0,0,0,0,0,0,0,0,0,0,0,0,0,0,0,0,0,0,0],"sum_hessian":[8.442922E3,9.0556555E2,7.537356E3,2.2992516E2,6.756404E2,1.389225E3,6.1481313E3,8.971475E1,1.402104E2,9.146101E1,5.841794E2,2.6336166E2,1.1258633E3,3.436919E3,2.7112124E3,8.515689E1,4.5578604E0,1.011835E2,3.9026905E1,8.907559E1,2.3854222E0,2.5983633E2,3.2434308E2,1.4854542E1,2.4850714E2,3.2757617E2,7.982872E2,3.107554E3,3.2936496E2,1.8112775E3,8.999349E2,8.301116E1,2.1457303E0,1.771405E0,2.7864554E0,9.993647E1,1.247033E0,2.0849264E1,1.817764E1,1.57174835E1,7.335811E1,1.2771463E0,1.1082759E0,1.08403366E2,1.5143295E2,2.791311E2,4.5211956E1,2.444802E0,1.240974E1,1.9508202E2,5.342512E1,9.870616E1,2.2887001E2,1.4607947E2,6.522077E2,1.4049965E3,1.7025575E3,2.8186218E2,4.7502777E1,1.3561792E3,4.5509827E2,1.8513664E2,7.147983E2,4.0518794E0,7.895928E1,1.0254164E0,1.1203139E0,1.6223298E0,1.1641256E0,1.2332963E1,8.760351E1,1.8084375E1,2.7648895E0,1.2143785E1,6.0338545E0,1.3601991E1,2.1154926E0,7.085486E1,2.5032442E0,3.0959736E1,7.7443634E1,1.00203E2,5.122995E1,2.6366113E2,1.54699955E1,8.76807E0,3.6443886E1,1.2442992E0,1.2005029E0,3.956774E0,8.452966E0,1.5545032E2,3.9631695E1,7.5179396E0,4.590718E1,6.687897E1,3.182719E1,8.6102844E1,1.4276717E2,8.753298E1,5.8546486E1,5.9946967E2,5.2738018E1,1.2898867E3,1.15109665E2,2.6748157E2,1.4350759E3,7.11366E1,2.107256E2,3.317608E1,1.4326699E1,2.7521667E2,1.0809625E3,3.6265262E2,9.244565E1,8.238778E1,1.02748856E2,3.1607013E2,3.9872812E2],"tree_param":{"num_deleted":"0","num_feature":"7","num_nodes":"119","size_leaf_vector":"1"}},{"base_weights":[-3.7045889E-3,-2.4150665E-1,7.8901835E-2,-6.7222583E-1,-1.9790228E-1,1.5119759E-2,2.4171433E-1,-8.6737865E-1,-5.4982096E-1,-5.7478297E-1,-1.5532042E-1,-1.6867122E-2,3.0758202E-1,4.4534382E-1,1.7620015E-1,-8.9281267E-1,-3.7065104E-1,-7.306704E-1,-4.0690225E-1,-6.8906206E-1,-2.7740008E-1,-3.7792355E-1,-8.1533E-2,-3.1515083E-1,1.334484E-2,2.6985875E-1,7.5881624E-1,-7.425373E-3,4.83853E-1,3.866774E-2,2.6054528E-1,-9.0717334E-1,-2.8648883E-1,-2.0356844E-1,-6.894536E-2,-7.540515E-1,4.287202E-3,-1.7632914E-1,-6.688319E-1,-7.314924E-1,-3.2454574E-1,1.09028906E-1,-5.6337625E-1,8.987948E-1,-3.9425442E-1,-3.294442E-1,-8.121944E-3,-6.115897E-1,-2.669775E-1,3.545926E-2,-4.1199967E-1,1.4692967E-1,3.7681928E-1,3.1946394E-1,7.964749E-1,2.501393E-1,-4.1048893E-1,7.9047614E-1,4.3530768E-1,-1.1211901E-2,3.4571418E-1,2.3144902E-1,8.184549E-1,-1.3198912E-1,-2.7801907E-1,-1.9232298E-1,6.470649E-2,1.0082181E-1,-1.7582215E-1,-7.788686E-2,-2.4226287E-1,2.1935327E-1,-9.784729E-2,-2.4238366E-1,4.4851735E-2,-2.445596E-1,-1.6263777E-1,1.0526918E-1,-1.403248E-1,1.1485308E-1,-1.2246583E-1,-2.0498624E-1,3.512072E-1,5.1792156E-2,4.8304355E-1,-1.9127214E-1,-9.633429E-2,-6.1462667E-2,-1.4754607E-1,-2.478663E-2,4.903359E-2,-1.9962148E-1,1.2315913E-1,-1.7429845E-2,-1.02693744E-1,-5.217384E-2,2.1535343E-2,-2.4875517E-1,-8.317176E-2,6.2474903E-2,-8.642524E-2,-8.1774674E-2,1.261826E-1,2.4173582E-1,-1.5972228E-1,1.7872639E-1,2.8569248E-1,-9.881673E-3,2.0117141E-1,-2.5518757E-1,1.3749686E-1,1.7966089E-1,2.972904E-1,1.16937086E-1,2.4596341E-1,-1.8119091E-1,2.5456646E-3,1.6170947E-2,1.7233709E-1,2.5167605E-2,9.189767E-2,7.5821325E-2,3.026055E-1],"categories":[],"categories_nodes":[],"categories_segments":[],"categories_sizes":[],"default_left":[0,0,0,0,0,0,0,0,0,0,0,0,0,0,0,0,0,0,0,0,0,0,0,0,0,0,0,0,0,0,0,0,0,0,0,0,0,0,0,0,0,0,0,0,0,0,0,0,0,0,0,0,0,0,0,0,0,0,0,0,0,0,0,0,0,0,0,0,0,0,0,0,0,0,0,0,0,0,0,0,0,0,0,0,0,0,0,0,0,0,0,0,0,0,0,0,0,0,0,0,0,0,0,0,0,0,0,0,0,0,0,0,0,0,0,0,0,0,0,0,0,0,0],"id":6,"left_children":[1,3,5,7,9,11,13,15,17,19,21,23,25,27,29,31,33,35,37,39,41,43,45,47,49,51,53,55,57,59,61,63,65,-1,67,69,-1,71,73,75,77,79,81,83,85,87,89,91,93,95,97,99,101,103,105,107,109,111,113,115,117,119,121,-1,-1,-1,-1,-1,-1,-1,-1,-1,-1,-1,-1,-1,-1,-1,-1,-1,-1,-1,-1,-1,-1,-1,-1,-1,-1,-1,-1,-1,-1,-1,-1,-1,-1,-1,-1,-1,-1,-1,-1,-1,-1,-1,-1,-1,-1,-1,-1,-1,-1,-1,-1,-1,-1,-1,-1,-1,-1,-1,-1],"loss_changes":[1.6167581E2,3.9718857E1,6.3429455E1,4.1727753E0,3.0855843E1,4.1074287E1,2.2858604E1,5.950966E-1,2.8650665E0,6.448654E0,2.8448605E1,3.5674698E1,7.163437E0,7.289337E0,1.5098927E1,3.41053E-1,4.4372624E-1,9.296074E-1,4.145829E0,1.9351196E0,6.2401433E0,9.348564E0,2.3720188E1,5.035969E0,3.3831436E1,5.2174644E0,2.8896713E-1,3.6053238E0,5.3885117E0,7.604923E0,1.2913536E1,2.040863E-1,6.828697E-1,0E0,9.8867136E-1,1.1435394E0,0E0,5.5284166E0,3.8427515E0,1.5398026E0,1.7546108E0,3.6428056E0,7.514966E0,2.6937876E0,7.387665E0,5.922394E0,1.2881143E1,3.030058E0,4.936281E0,2.6010971E1,9.763739E0,5.080803E0,6.19442E0,2.1949463E0,3.579216E-1,2.5459757E0,5.564769E0,1.3816338E0,5.5393867E0,5.001364E0,4.6006937E0,8.465801E0,4.008314E0,0E0,0E0,0E0,0E0,0E0,0E0,0E0,0E0,0E0,0E0,0E0,0E0,0E0,0E0,0E0,0E0,0E0,0E0,0E0,0E0,0E0,0E0,0E0,0E0,0E0,0E0,0E0,0E0,0E0,0E0,0E0,0E0,0E0,0E0,0E0,0E0,0E0,0E0,0E0,0E0,0E0,0E0,0E0,0E0,0E0,0E0,0E0,0E0,0E0,0E0,0E0,0E0,0E0,0E0,0E0,0E0,0E0,0E0,0E0,0E0],"parents":[2147483647,0,0,1,1,2,2,3,3,4,4,5,5,6,6,7,7,8,8,9,9,10,10,11,11,12,12,13,13,14,14,15,15,16,16,17,17,18,18,19,19,20,20,21,21,22,22,23,23,24,24,25,25,26,26,27,27,28,28,29,29,30,30,31,31,32,32,34,34,35,35,37,37,38,38,39,39,40,40,41,41,42,42,43,43,44,44,45,45,46,46,47,47,48,48,49,49,50,50,51,51,52,52,53,53,54,54,55,55,56,56,57,57,58,58,59,59,60,60,61,61,62,62],"right_children":[2,4,6,8,10,12,14,16,18,20,22,24,26,28,30,32,34,36,38,40,42,44,46,48,50,52,54,56,58,60,62,64,66,-1,68,70,-1,72,74,76,78,80,82,84,86,88,90,92,94,96,98,100,102,104,106,108,110,112,114,116,118,120,122,-1,-1,-1,-1,-1,-1,-1,-1,-1,-1,-1,-1,-1,-1,-1,-1,-1,-1,-1,-1,-1,-1,-1,-1,-1,-1,-1,-1,-1,-1,-1,-1,-1,-1,-1,-1,-1,-1,-1,-1,-1,-1,-1,-1,-1,-1,-1,-1,-1,-1,-1,-1,-1,-1,-1,-1,-1,-1,-1,-1],"split_conditions":[4E0,2E0,5.1E1,4.3E1,3.1E1,1.39E2,1.48E2,1.45E2,1.99E2,2.24E2,1.79E2,1.53E2,2.46E2,9.8E1,1.87E2,2.83E2,3.3E1,7.3E1,1.62E2,1.39E2,1.56E2,1.11E2,1.1E2,1.02E2,1.93E2,3.9E1,2.6E1,1.41E2,1.23E2,6.5E1,1.44E2,1.41E2,1.2E2,-2.0356844E-1,1.71E2,1.33E2,4.287202E-3,2.03E2,1.37E2,2.03E2,1.4E2,2.8E1,1.45E2,1.72E2,1.47E2,1.61E2,2.28E2,1E0,1.47E2,1.03E2,3.3E1,1.82E2,1.4E2,2.4E1,1.46E2,1.35E2,2.07E2,1.98E2,2.41E2,9.1E1,1.17E2,1.12E2,5.4E1,-1.3198912E-1,-2.7801907E-1,-1.9232298E-1,6.470649E-2,1.0082181E-1,-1.7582215E-1,-7.788686E-2,-2.4226287E-1,2.1935327E-1,-9.784729E-2,-2.4238366E-1,4.4851735E-2,-2.445596E-1,-1.6263777E-1,1.0526918E-1,-1.403248E-1,1.1485308E-1,-1.2246583E-1,-2.0498624E-1,3.512072E-1,5.1792156E-2,4.8304355E-1,-1.9127214E-1,-9.633429E-2,-6.1462667E-2,-1.4754607E-1,-2.478663E-2,4.903359E-2,-1.9962148E-1,1.2315913E-1,-1.7429845E-2,-1.02693744E-1,-5.217384E-2,2.1535343E-2,-2.4875517E-1,-8.317176E-2,6.2474903E-2,-8.642524E-2,-8.1774674E-2,1.261826E-1,2.4173582E-1,-1.5972228E-1,1.7872639E-1,2.8569248E-1,-9.881673E-3,2.0117141E-1,-2.5518757E-1,1.3749686E-1,1.7966089E-1,2.972904E-1,1.16937086E-1,2.4596341E-1,-1.8119091E-1,2.5456646E-3,1.6170947E-2,1.7233709E-1,2.5167605E-2,9.189767E-2,7.5821325E-2,3.026055E-1],"split_indices":[2,2,0,0,0,3,6,3,4,4,4,4,4,3,4,4,0,0,6,3,6,6,3,3,6,0,0,6,6,0,3,4,3,0,6,6,0,4,3,4,3,0,3,4,4,6,4,5,6,3,0,6,4,0,3,6,4,4,4,3,3,3,0,0,0,0,0,0,0,0,0,0,0,0,0,0,0,0,0,0,0,0,0,0,0,0,0,0,0,0,0,0,0,0,0,0,0,0,0,0,0,0,0,0,0,0,0,0,0,0,0,0,0,0,0,0,0,0,0,0,0,0,0],"split_type":[0,0,0,0,0,0,0,0,0,0,0,0,0,0,0,0,0,0,0,0,0,0,0,0,0,0,0,0,0,0,0,0,0,0,0,0,0,0,0,0,0,0,0,0,0,0,0,0,0,0,0,0,0,0,0,0,0,0,0,0,0,0,0,0,0,0,0,0,0,0,0,0,0,0,0,0,0,0,0,0,0,0,0,0,0,0,0,0,0,0,0,0,0,0,0,0,0,0,0,0,0,0,0,0,0,0,0,0,0,0,0,0,0,0,0,0,0,0,0,0,0,0,0],"sum_hessian":[8.228329E3,2.1208987E3,6.1074307E3,1.9364806E2,1.9272506E3,4.38909E3,1.7183406E3,7.229709E1,1.2135097E2,1.9437662E2,1.7328739E3,3.9572266E3,4.318634E2,4.1686224E2,1.3014783E3,6.801701E1,4.280074E0,5.1751762E1,6.9599205E1,1.3946541E2,5.4911217E1,4.3037863E2,1.3024954E3,3.6308133E2,3.5941453E3,4.000197E2,3.184367E1,3.2739307E1,3.8412296E2,4.9530194E2,8.0617633E2,6.595861E1,2.058402E0,1.5000702E0,2.780004E0,5.0165092E1,1.5866686E0,3.7905075E1,3.1694132E1,1.2402225E2,1.5443158E1,2.3617079E1,3.1294136E1,4.753099E0,4.2562552E2,2.9677847E2,1.00571686E3,4.912021E1,3.1396112E2,3.417386E3,1.7675935E2,1.872212E2,2.1279852E2,3.2626314E0,2.8581038E1,2.0206442E1,1.2532866E1,5.0413967E1,3.3370898E2,4.2691342E2,6.838852E1,7.6756116E2,3.8615227E1,3.5940547E0,6.2364555E1,1.0443741E0,1.0140281E0,1.7553338E0,1.0246702E0,5.468884E0,4.469621E1,4.8214717E0,3.3083603E1,2.7099964E1,4.5941677E0,8.371332E1,4.030893E1,2.4477255E0,1.2995433E1,1.5612283E1,8.004797E0,2.9836872E1,1.4572647E0,2.9670231E0,1.7860758E0,9.6587E1,3.2903854E2,1.6922063E2,1.2755784E2,7.015843E2,3.041326E2,4.6994896E1,2.1253097E0,8.368966E1,2.3027145E2,5.0468488E2,2.912701E3,4.1898678E1,1.3486067E2,1.6454768E2,2.2673532E1,1.3112585E1,1.9968593E2,2.1113749E0,1.1512567E0,1.4599396E1,1.3981642E1,1.262658E1,7.579862E0,8.33256E0,4.200306E0,2.7816881E1,2.2597088E1,3.0019208E2,3.3516907E1,1.2776171E1,4.1413724E2,3.0594385E1,3.7794136E1,2.590935E2,5.0846765E2,1.0303294E1,2.8311934E1],"tree_param":{"num_deleted":"0","num_feature":"7","num_nodes":"123","size_leaf_vector":"1"}},{"base_weights":[-3.0788803E-3,-3.4131196E-1,3.262999E-2,-4.7405016E-1,-1.9610818E-1,-8.8665545E-2,8.951787E-2,-6.4330417E-1,-2.69557E-1,-3.6824715E-1,-5.0275955E-2,-2.954732E-1,-5.209754E-2,2.3842311E-1,4.6850465E-2,-4.6639296E-1,-7.6656294E-1,-3.4198546E-1,4.2698196E-1,-3.9434886E-1,8.9453804E-1,1.1170573E-1,-3.36842E-1,1.438466E-1,-3.4590405E-1,6.4955982E-3,-1.6878204E-1,1.6966675E-1,3.9850077E-1,2.9948836E-2,4.5317468E-1,-5.96719E-1,-3.008875E-1,-8.2971376E-1,-5.576122E-1,1.5745936E-2,-4.369244E-1,6.218014E-1,-2.4851047E-1,-4.3534786E-1,3.952266E-1,3.767676E-1,8.585199E-2,-3.909094E-1,1.8768318E-1,-8.3484393E-1,-1.9977273E-1,4.2549813E-1,-2.739963E-1,-3.738635E-1,3.8673568E-1,-3.6335424E-2,2.1947542E-1,-3.2720545E-1,-9.376165E-2,-3.5766354E-1,2.068325E-1,8.1298345E-1,3.72161E-1,-4.0832506E-3,2.2278883E-1,-5.8214474E-1,4.858881E-1,-2.394937E-1,-7.298266E-2,-1.3277543E-1,5.4204147E-2,-2.8632936E-1,-2.0695026E-1,-1.8795578E-1,1.981536E-1,-2.8155856E-2,2.6462433E-1,-2.070971E-1,-1.00112304E-1,-1.0152378E-1,2.4272273E-1,1.2835503E-2,-1.4095885E-1,-6.0022745E-2,5.6565803E-1,-2.8354222E-1,-2.9314784E-2,4.0381998E-2,2.708677E-1,-1.15783654E-1,-3.1408447E-1,-1.495885E-1,8.139478E-3,-7.746085E-2,1.9133836E-1,-2.4125324E-1,2.1204264E-1,-1.23913445E-1,2.5839819E-2,2.909949E-1,-8.842277E-2,-1.0515476E-1,-1.5962071E-3,5.5542234E-2,1.9083308E-1,-2.3860024E-1,-7.773841E-2,-3.113372E-2,3.4054214E-1,-1.2981054E-1,1.540654E-1,1.07615374E-1,4.2076208E-2,-6.4514354E-2,2.9747647E-1,8.1784695E-2,1.4297691E-1,-1.0431364E-2,6.465207E-2,1.9171635E-2,9.287559E-2,-4.0834528E-1,7.2650075E-2,1.3028131E-1,2.9301217E-1],"categories":[],"categories_nodes":[],"categories_segments":[],"categories_sizes":[],"default_left":[0,0,0,0,0,0,0,0,0,0,0,0,0,0,0,0,0,0,0,0,0,0,0,0,0,0,0,0,0,0,0,0,0,0,0,0,0,0,0,0,0,0,0,0,0,0,0,0,0,0,0,0,0,0,0,0,0,0,0,0,0,0,0,0,0,0,0,0,0,0,0,0,0,0,0,0,0,0,0,0,0,0,0,0,0,0,0,0,0,0,0,0,0,0,0,0,0,0,0,0,0,0,0,0,0,0,0,0,0,0,0,0,0,0,0,0,0,0,0,0,0],"id":7,"left_children":[1,3,5,7,9,11,13,15,17,19,21,23,25,27,29,31,33,35,37,39,41,43,45,47,49,51,53,55,57,59,61,63,65,67,69,71,73,75,-1,77,79,-1,-1,81,83,85,87,89,91,93,95,97,99,101,103,105,107,109,111,113,115,117,119,-1,-1,-1,-1,-1,-1,-1,-1,-1,-1,-1,-1,-1,-1,-1,-1,-1,-1,-1,-1,-1,-1,-1,-1,-1,-1,-1,-1,-1,-1,-1,-1,-1,-1,-1,-1,-1,-1,-1,-1,-1,-1,-1,-1,-1,-1,-1,-1,-1,-1,-1,-1,-1,-1,-1,-1,-1,-1],"loss_changes":[9.724564E1,1.4726196E1,5.026061E1,1.3704605E1,9.242031E0,1.7572294E1,3.1489662E1,4.410675E0,9.393488E0,5.9241295E0,9.361516E0,7.7868233E0,1.3520483E1,1.2083771E1,2.6461288E1,1.812294E0,1.217392E0,5.6648006E0,4.8463173E0,5.555521E0,4.603722E-1,5.0025716E0,4.8016977E0,4.431705E0,6.567482E0,1.2025034E1,7.826021E0,1.5244347E1,3.3108864E0,2.4297441E1,5.4946766E0,3.4143925E0,2.993587E0,1.0115204E0,3.1500711E0,3.491921E0,3.213932E0,3.1333332E0,0E0,2.6369E0,8.1251E0,0E0,0E0,2.7146714E0,4.160633E0,1.0617638E0,3.9731529E0,3.4006433E0,8.561913E0,5.4882545E0,5.062568E0,1.0693795E1,3.0394754E0,6.5513916E0,5.657756E0,3.577826E0,7.268196E0,3.6894293E0,3.1243362E0,2.1219952E1,7.639017E0,3.648413E0,3.3687973E0,0E0,0E0,0E0,0E0,0E0,0E0,0E0,0E0,0E0,0E0,0E0,0E0,0E0,0E0,0E0,0E0,0E0,0E0,0E0,0E0,0E0,0E0,0E0,0E0,0E0,0E0,0E0,0E0,0E0,0E0,0E0,0E0,0E0,0E0,0E0,0E0,0E0,0E0,0E0,0E0,0E0,0E0,0E0,0E0,0E0,0E0,0E0,0E0,0E0,0E0,0E0,0E0,0E0,0E0,0E0,0E0,0E0,0E0],"parents":[2147483647,0,0,1,1,2,2,3,3,4,4,5,5,6,6,7,7,8,8,9,9,10,10,11,11,12,12,13,13,14,14,15,15,16,16,17,17,18,18,19,19,20,20,21,21,22,22,23,23,24,24,25,25,26,26,27,27,28,28,29,29,30,30,31,31,32,32,33,33,34,34,35,35,36,36,37,37,39,39,40,40,43,43,44,44,45,45,46,46,47,47,48,48,49,49,50,50,51,51,52,52,53,53,54,54,55,55,56,56,57,57,58,58,59,59,60,60,61,61,62,62],"right_children":[2,4,6,8,10,12,14,16,18,20,22,24,26,28,30,32,34,36,38,40,42,44,46,48,50,52,54,56,58,60,62,64,66,68,70,72,74,76,-1,78,80,-1,-1,82,84,86,88,90,92,94,96,98,100,102,104,106,108,110,112,114,116,118,120,-1,-1,-1,-1,-1,-1,-1,-1,-1,-1,-1,-1,-1,-1,-1,-1,-1,-1,-1,-1,-1,-1,-1,-1,-1,-1,-1,-1,-1,-1,-1,-1,-1,-1,-1,-1,-1,-1,-1,-1,-1,-1,-1,-1,-1,-1,-1,-1,-1,-1,-1,-1,-1,-1,-1,-1,-1,-1],"split_conditions":[3E0,4.7E1,3.9E1,1.23E2,2.01E2,2.5E1,1.46E2,1.54E2,2.55E2,1.52E2,1.65E2,1.35E2,1.68E2,1.27E2,2.6E2,1.13E2,2.26E2,1.41E2,1.79E2,7.2E1,1.54E2,1.05E2,1.1E2,2.2E1,2.64E2,2.33E2,1.14E2,1.46E2,1.15E2,1.35E2,9.1E1,2.14E2,1.49E2,1E0,1.22E2,1.45E2,1.82E2,3.1E1,-2.4851047E-1,4.8E1,1.76E2,3.767676E-1,8.585199E-2,2E0,1E0,1E2,5.4E1,4E0,1.29E2,1.42E2,1.62E2,1E2,1.42E2,4E0,2.17E2,6.2E1,1.31E2,1.58E2,1.98E2,6.1E1,1.84E2,1.6E2,2.96E2,-2.394937E-1,-7.298266E-2,-1.3277543E-1,5.4204147E-2,-2.8632936E-1,-2.0695026E-1,-1.8795578E-1,1.981536E-1,-2.8155856E-2,2.6462433E-1,-2.070971E-1,-1.00112304E-1,-1.0152378E-1,2.4272273E-1,1.2835503E-2,-1.4095885E-1,-6.0022745E-2,5.6565803E-1,-2.8354222E-1,-2.9314784E-2,4.0381998E-2,2.708677E-1,-1.15783654E-1,-3.1408447E-1,-1.495885E-1,8.139478E-3,-7.746085E-2,1.9133836E-1,-2.4125324E-1,2.1204264E-1,-1.23913445E-1,2.5839819E-2,2.909949E-1,-8.842277E-2,-1.0515476E-1,-1.5962071E-3,5.5542234E-2,1.9083308E-1,-2.3860024E-1,-7.773841E-2,-3.113372E-2,3.4054214E-1,-1.2981054E-1,1.540654E-1,1.07615374E-1,4.2076208E-2,-6.4514354E-2,2.9747647E-1,8.1784695E-2,1.4297691E-1,-1.0431364E-2,6.465207E-2,1.9171635E-2,9.287559E-2,-4.0834528E-1,7.2650075E-2,1.3028131E-1,2.9301217E-1],"split_indices":[2,0,0,3,4,0,6,6,4,3,6,6,6,3,4,3,4,6,6,0,3,3,3,0,4,4,3,4,6,3,3,4,6,1,3,3,4,0,0,0,6,0,0,2,5,3,0,2,3,3,6,3,3,2,6,0,6,4,4,0,4,6,4,0,0,0,0,0,0,0,0,0,0,0,0,0,0,0,0,0,0,0,0,0,0,0,0,0,0,0,0,0,0,0,0,0,0,0,0,0,0,0,0,0,0,0,0,0,0,0,0,0,0,0,0,0,0,0,0,0,0],"split_type":[0,0,0,0,0,0,0,0,0,0,0,0,0,0,0,0,0,0,0,0,0,0,0,0,0,0,0,0,0,0,0,0,0,0,0,0,0,0,0,0,0,0,0,0,0,0,0,0,0,0,0,0,0,0,0,0,0,0,0,0,0,0,0,0,0,0,0,0,0,0,0,0,0,0,0,0,0,0,0,0,0,0,0,0,0,0,0,0,0,0,0,0,0,0,0,0,0,0,0,0,0,0,0,0,0,0,0,0,0,0,0,0,0,0,0,0,0,0,0,0,0],"sum_hessian":[8.0496E3,7.678639E2,7.2817363E3,3.99968E2,3.678959E2,2.3246313E3,4.957105E3,2.1766562E2,1.8230237E2,1.6802988E2,1.9986603E2,3.4821988E2,1.9764115E3,1.1030336E3,3.8540713E3,9.13444E1,1.2632122E2,1.6559251E2,1.6709845E1,1.6530084E2,2.7290456E0,1.280793E2,7.1786736E1,3.566636E1,3.1255353E2,1.3163503E3,6.6006116E2,7.730528E2,3.2998074E2,3.701189E3,1.5288246E2,4.964577E1,4.169863E1,9.472253E1,3.1598696E1,3.49048E1,1.3068771E2,1.4901881E1,1.8079638E0,1.575677E2,7.7331295E0,1.0443527E0,1.684693E0,1.627433E1,1.1180497E2,1.4395205E1,5.739153E1,2.129435E1,1.4372008E1,3.0153583E2,1.1017685E1,1.0966412E3,2.1970915E2,2.110395E2,4.4902167E2,5.0329117E1,7.2272363E2,1.7932343E1,3.120484E2,3.1468218E3,5.543671E2,4.1682925E0,1.4871416E2,3.0812565E1,1.8833206E1,3.228113E1,9.417497E0,4.699673E1,4.7725792E1,3.0366583E1,1.2321135E0,3.1776474E1,3.128328E0,3.617912E1,9.45086E1,2.3003309E0,1.2601551E1,1.0592394E1,1.4697531E2,6.1444635E0,1.5886662E0,4.861293E0,1.1413036E1,1.0518712E2,6.6178536E0,5.523932E0,8.871273E0,2.4251875E1,3.3139656E1,4.9942183E0,1.630013E1,9.445993E0,4.926015E0,2.7796182E2,2.3574018E1,5.7085967E0,5.309088E0,9.76043E1,9.990369E2,2.0431596E2,1.53932E1,2.5437546E1,1.8560196E2,4.4629922E2,2.7224615E0,4.680142E1,3.5276978E0,2.1891812E2,5.0380554E2,2.624121E0,1.5308222E1,1.6160806E2,1.5044035E2,2.7617112E3,3.8511047E2,1.9646634E2,3.5790082E2,1.8082086E0,2.360084E0,1.3626826E2,1.2445893E1],"tree_param":{"num_deleted":"0","num_feature":"7","num_nodes":"121","size_leaf_vector":"1"}},{"base_weights":[-2.6507694E-3,-1.6059412E-1,4.9745884E-2,-5.220394E-1,-1.3024639E-1,-5.7028074E-2,9.133787E-2,-7.4207294E-1,-4.02614E-1,-2.4511735E-1,-5.534206E-2,2.733776E-1,-8.087201E-2,3.9080665E-2,1.8456748E-1,-2.853444E-1,-6.147601E-1,-6.506749E-1,-3.0000973E-1,-1.9492781E-1,-4.8443776E-1,2.600514E-1,-8.8009626E-2,-5.4980564E-1,3.3667955E-1,-1.1527395E-1,1.09141596E-1,6.0007546E-2,-2.2866566E-1,1.938997E-1,-6.5155405E-1,-2.3615904E-1,-6.8718636E-1,-2.3363733E-1,-7.995351E-1,-4.26757E-1,-2.151595E-2,-3.0049363E-1,-7.996152E-2,-6.751193E-1,-2.8083172E-1,1.840022E-1,9.616087E-1,-8.55873E-1,-7.468996E-2,-3.4797576E-1,2.5174093E-1,-6.371512E-2,4.405617E-1,-1.8120264E-1,-5.3069416E-2,3.300663E-2,4.1353038E-1,9.586321E-1,5.405811E-2,-3.059404E-1,5.2302366E-1,3.290818E-1,1.4462933E-1,-1.0689822E0,-1.365902E-2,9.523844E-2,-2.3755544E-1,-2.245552E-1,-8.672256E-2,2.0856608E-1,-1.4244094E-1,-2.620963E-1,2.8998207E-3,-1.7351224E-1,-4.3530956E-2,2.6529112E-1,-5.0475582E-2,3.9898857E-2,-1.0294526E-1,-1.1823691E-1,1.8498987E-4,-1.8933915E-2,-2.1326697E-1,-1.179444E-1,7.3266745E-2,6.961386E-2,-2.043478E-1,3.7108696E-1,3.5426643E-2,-3.2205185E-1,3.6953907E-2,-3.648374E-2,3.27482E-2,-9.675816E-2,1.8422139E-1,2.3703158E-1,6.067804E-2,-3.4527566E-2,-8.9838386E-2,-8.993589E-2,-3.9681313E-3,1.1666091E-4,1.4904347E-1,3.481458E-2,1.5586191E-1,3.1373683E-1,4.103962E-2,-3.112591E-2,2.5616478E-2,-1.6763015E-1,-7.369211E-2,-7.42483E-2,1.9518374E-1,8.582735E-2,1.9968714E-1,2.2091214E-2,7.392474E-2,-1.4756186E-1,-5.72445E-1,-1.861408E-1,1.4246339E-1],"categories":[],"categories_nodes":[],"categories_segments":[],"categories_sizes":[],"default_left":[0,0,0,0,0,0,0,0,0,0,0,0,0,0,0,0,0,0,0,0,0,0,0,0,0,0,0,0,0,0,0,0,0,0,0,0,0,0,0,0,0,0,0,0,0,0,0,0,0,0,0,0,0,0,0,0,0,0,0,0,0,0,0,0,0,0,0,0,0,0,0,0,0,0,0,0,0,0,0,0,0,0,0,0,0,0,0,0,0,0,0,0,0,0,0,0,0,0,0,0,0,0,0,0,0,0,0,0,0,0,0,0,0,0,0,0,0],"id":8,"left_children":[1,3,5,7,9,11,13,15,17,19,21,23,25,27,29,-1,31,33,35,37,39,41,43,45,47,49,51,53,55,57,59,61,63,65,67,69,71,73,75,77,79,81,83,85,87,-1,-1,89,91,93,95,97,99,101,103,105,107,109,111,113,115,-1,-1,-1,-1,-1,-1,-1,-1,-1,-1,-1,-1,-1,-1,-1,-1,-1,-1,-1,-1,-1,-1,-1,-1,-1,-1,-1,-1,-1,-1,-1,-1,-1,-1,-1,-1,-1,-1,-1,-1,-1,-1,-1,-1,-1,-1,-1,-1,-1,-1,-1,-1,-1,-1,-1,-1],"loss_changes":[6.545713E1,2.154435E1,2.6381233E1,3.702896E0,1.5637869E1,1.3143975E1,2.0818726E1,8.0976486E-1,2.3727856E0,8.525833E0,1.1380476E1,6.038884E0,1.0172539E1,1.5369221E1,1.2104916E1,0E0,8.0810547E-1,1.5928078E0,2.575674E0,7.1963654E0,4.6145954E0,5.3565116E0,1.0159955E1,8.092882E0,4.3927374E0,5.3893776E0,5.5198817E0,1.3542026E1,1.1712193E1,1.0069508E1,4.5585504E0,2.468378E0,4.9616146E-1,2.3357687E0,1.2507381E0,2.0628662E0,3.333048E0,5.7739906E0,7.243967E0,1.3384247E0,3.7260838E0,4.0988164E0,2.154832E0,3.7435627E0,8.499216E0,0E0,0E0,4.143334E0,6.7908726E0,4.9589787E0,6.6683736E0,2.9057684E0,1.4435673E0,1.050519E0,1.2502953E1,2.6217213E0,2.019878E0,5.668598E0,8.038982E0,4.0827026E0,2.608803E0,0E0,0E0,0E0,0E0,0E0,0E0,0E0,0E0,0E0,0E0,0E0,0E0,0E0,0E0,0E0,0E0,0E0,0E0,0E0,0E0,0E0,0E0,0E0,0E0,0E0,0E0,0E0,0E0,0E0,0E0,0E0,0E0,0E0,0E0,0E0,0E0,0E0,0E0,0E0,0E0,0E0,0E0,0E0,0E0,0E0,0E0,0E0,0E0,0E0,0E0,0E0,0E0,0E0,0E0,0E0,0E0],"parents":[2147483647,0,0,1,1,2,2,3,3,4,4,5,5,6,6,7,7,8,8,9,9,10,10,11,11,12,12,13,13,14,14,16,16,17,17,18,18,19,19,20,20,21,21,22,22,23,23,24,24,25,25,26,26,27,27,28,28,29,29,30,30,31,31,32,32,33,33,34,34,35,35,36,36,37,37,38,38,39,39,40,40,41,41,42,42,43,43,44,44,47,47,48,48,49,49,50,50,51,51,52,52,53,53,54,54,55,55,56,56,57,57,58,58,59,59,60,60],"right_children":[2,4,6,8,10,12,14,16,18,20,22,24,26,28,30,-1,32,34,36,38,40,42,44,46,48,50,52,54,56,58,60,62,64,66,68,70,72,74,76,78,80,82,84,86,88,-1,-1,90,92,94,96,98,100,102,104,106,108,110,112,114,116,-1,-1,-1,-1,-1,-1,-1,-1,-1,-1,-1,-1,-1,-1,-1,-1,-1,-1,-1,-1,-1,-1,-1,-1,-1,-1,-1,-1,-1,-1,-1,-1,-1,-1,-1,-1,-1,-1,-1,-1,-1,-1,-1,-1,-1,-1,-1,-1,-1,-1,-1,-1,-1,-1,-1,-1],"split_conditions":[4E0,2E0,1.78E2,4.3E1,4.3E1,1.3E2,4.8E1,1.15E2,1.12E2,1.77E2,1.33E2,9.8E1,1.35E2,1.89E2,2.08E2,-2.853444E-1,1.65E2,1.46E2,2.25E2,1.22E2,1E0,2.48E2,1.3E2,5E1,1.42E2,4.5E1,5.3E1,1.1E2,1.4E2,1.5E2,5.5E1,1.56E2,2.45E2,9.2E1,6.7E1,5.6E1,2.28E2,1.27E2,1.74E2,1.48E2,1.36E2,6.9E1,1.3E2,6.2E1,6E1,-3.4797576E-1,2.5174093E-1,5.2E1,1.61E2,1.67E2,1.02E2,1.55E2,1.49E2,2.44E2,1.05E2,3.1E1,1.88E2,2.45E2,1.22E2,1.21E2,1.22E2,9.523844E-2,-2.3755544E-1,-2.245552E-1,-8.672256E-2,2.0856608E-1,-1.4244094E-1,-2.620963E-1,2.8998207E-3,-1.7351224E-1,-4.3530956E-2,2.6529112E-1,-5.0475582E-2,3.9898857E-2,-1.0294526E-1,-1.1823691E-1,1.8498987E-4,-1.8933915E-2,-2.1326697E-1,-1.179444E-1,7.3266745E-2,6.961386E-2,-2.043478E-1,3.7108696E-1,3.5426643E-2,-3.2205185E-1,3.6953907E-2,-3.648374E-2,3.27482E-2,-9.675816E-2,1.8422139E-1,2.3703158E-1,6.067804E-2,-3.4527566E-2,-8.9838386E-2,-8.993589E-2,-3.9681313E-3,1.1666091E-4,1.4904347E-1,3.481458E-2,1.5586191E-1,3.1373683E-1,4.103962E-2,-3.112591E-2,2.5616478E-2,-1.6763015E-1,-7.369211E-2,-7.42483E-2,1.9518374E-1,8.582735E-2,1.9968714E-1,2.2091214E-2,7.392474E-2,-1.4756186E-1,-5.72445E-1,-1.861408E-1,1.4246339E-1],"split_indices":[2,2,4,0,0,6,0,3,3,6,6,3,3,6,6,0,4,6,4,3,1,4,4,0,4,0,0,6,3,6,0,6,4,3,0,0,4,6,4,4,3,0,6,0,0,0,0,0,4,6,3,3,4,4,3,0,4,4,3,3,3,0,0,0,0,0,0,0,0,0,0,0,0,0,0,0,0,0,0,0,0,0,0,0,0,0,0,0,0,0,0,0,0,0,0,0,0,0,0,0,0,0,0,0,0,0,0,0,0,0,0,0,0,0,0,0,0],"split_type":[0,0,0,0,0,0,0,0,0,0,0,0,0,0,0,0,0,0,0,0,0,0,0,0,0,0,0,0,0,0,0,0,0,0,0,0,0,0,0,0,0,0,0,0,0,0,0,0,0,0,0,0,0,0,0,0,0,0,0,0,0,0,0,0,0,0,0,0,0,0,0,0,0,0,0,0,0,0,0,0,0,0,0,0,0,0,0,0,0,0,0,0,0,0,0,0,0,0,0,0,0,0,0,0,0,0,0,0,0,0,0,0,0,0,0,0,0],"sum_hessian":[7.90759E3,1.9693022E3,5.9382876E3,1.5128442E2,1.8180177E3,1.6645986E3,4.273689E3,5.1389305E1,9.989513E1,7.166748E2,1.1013429E3,1.1133687E2,1.5532617E3,2.7395383E3,1.5341509E3,1.7000263E1,3.438904E1,2.7666267E1,7.222886E1,5.9393176E2,1.2274306E2,1.0271419E2,9.986287E2,7.4015217E0,1.0393534E2,1.3154863E3,2.3777538E2,2.5416597E3,1.978786E2,1.5179763E3,1.6174524E1,6.206397E0,2.8182646E1,7.9535637E0,1.9712704E1,4.927197E1,2.2956888E1,3.0878317E2,2.8514862E2,6.2187397E1,6.0555664E1,9.380766E1,8.906525E0,1.5948681E1,9.8268005E2,5.2571363E0,2.1443853E0,2.1490566E1,8.244478E1,6.3769745E2,6.777889E2,1.9108807E2,4.6687298E1,1.5663461E1,2.525996E3,1.799704E2,1.7908213E1,4.0396017E2,1.1140161E3,9.3682785E0,6.8062463E0,3.3237498E0,2.882647E0,2.3657867E1,4.524778E0,1.2513196E0,6.7022443E0,1.798565E1,1.7270541E0,3.1345097E1,1.792687E1,2.4996622E0,2.0457226E1,2.7473654E1,2.813095E2,5.7413044E1,2.2773557E2,3.586676E0,5.860072E1,5.009161E1,1.0464053E1,8.9565704E1,4.241956E0,6.363035E0,2.5434895E0,1.2969274E1,2.9794073E0,7.8314404E2,1.9953604E2,1.5931345E1,5.5592217E0,3.2482906E1,4.9961872E1,4.1029904E2,2.2739839E2,9.333057E1,5.844583E2,1.7946759E2,1.1620482E1,1.2816506E1,3.387079E1,1.3915215E1,1.7482464E0,4.1803363E2,2.1079626E3,3.3065685E1,1.4690471E2,2.4106052E0,1.5497608E1,3.5984308E2,4.4117115E1,6.5729974E2,4.5671646E2,6.490677E0,2.8776016E0,2.915213E0,3.8910334E0],"tree_param":{"num_deleted":"0","num_feature":"7","num_nodes":"117","size_leaf_vector":"1"}},{"base_weights":[-2.3124495E-3,-2.2301453E-1,1.8823208E-2,-5.455582E-1,-1.719206E-1,-1.5574813E-1,3.637348E-2,-6.3229656E-1,2.628458E-1,-5.5726E-1,-1.2919874E-1,-1.9499159E-1,1.6964574E-1,3.6181505E-3,1.2809911E-1,-4.0574667E-1,-7.195461E-1,6.441612E-1,-5.533003E-1,-6.5595585E-1,-9.824474E-2,-5.0628304E-1,-8.408695E-2,-9.0650566E-2,-2.9697445E-1,7.727712E-1,9.489576E-2,2.4831952E-1,-9.699115E-3,1.13704145E-1,4.781111E-1,-6.3919455E-1,-1.9706938E-2,-7.411544E-1,-1.7465822E-2,9.485788E-2,3.848626E-1,-2.0848824E-1,-3.746473E-2,-3.4995496E-1,-8.0323267E-1,-6.150601E-1,6.8969977E-1,-3.242133E-1,-7.846588E-1,-1.8985135E-2,-2.754788E-1,-2.2098294E-1,3.5244495E-2,-2.719423E-1,-7.716369E-1,3.6386797E-1,3.4553885E-1,-7.728113E-1,1.7713565E-1,6.800358E-1,2.074599E-1,-2.1224037E-2,2.7556038E-1,-1.0756905E-3,1.6233216E-1,9.1390066E-2,5.878316E-1,8.740085E-2,-2.675994E-1,-1.6552033E-1,1.3327743E-1,-2.5276133E-1,-1.8408765E-1,1.3415465E-1,-1.7836371E-1,-1.7012313E-1,8.3876334E-2,-1.11880735E-1,-2.889461E-1,-2.6962313E-1,-6.115134E-2,3.1893116E-1,9.004125E-2,-1.346704E-1,1.9800358E-1,-2.581205E-1,4.0431965E-2,-2.6222922E-2,4.36598E-2,-9.982495E-2,1.5140298E-1,-6.09409E-3,-1.5067407E-1,-2.2351684E-2,6.26741E-2,-9.025587E-2,1.2295835E-1,-4.6820484E-2,-3.9758015E-1,-1.9327132E-1,2.6411283E-1,6.242459E-2,-3.1341824E-1,-1.8603751E-1,7.986044E-2,9.4379745E-2,3.0203024E-1,5.201591E-2,2.4102971E-1,-5.0889097E-2,-6.144799E-4,-9.385081E-3,1.1101893E-1,3.490502E-3,-4.0966734E-1,8.655591E-2,1.994574E-2,2.8267077E-1,-5.0887983E-2,-4.6567628E-4,1.8763663E-1],"categories":[],"categories_nodes":[],"categories_segments":[],"categories_sizes":[],"default_left":[0,0,0,0,0,0,0,0,0,0,0,0,0,0,0,0,0,0,0,0,0,0,0,0,0,0,0,0,0,0,0,0,0,0,0,0,0,0,0,0,0,0,0,0,0,0,0,0,0,0,0,0,0,0,0,0,0,0,0,0,0,0,0,0,0,0,0,0,0,0,0,0,0,0,0,0,0,0,0,0,0,0,0,0,0,0,0,0,0,0,0,0,0,0,0,0,0,0,0,0,0,0,0,0,0,0,0,0,0,0,0,0,0,0,0,0,0],"id":9,"left_children":[1,3,5,7,9,11,13,15,17,19,21,23,25,27,29,31,33,35,37,39,41,43,45,47,49,51,53,55,57,59,61,63,65,67,-1,69,-1,-1,-1,71,73,75,77,79,81,83,85,87,89,91,93,95,-1,97,99,101,103,105,107,109,111,113,115,-1,-1,-1,-1,-1,-1,-1,-1,-1,-1,-1,-1,-1,-1,-1,-1,-1,-1,-1,-1,-1,-1,-1,-1,-1,-1,-1,-1,-1,-1,-1,-1,-1,-1,-1,-1,-1,-1,-1,-1,-1,-1,-1,-1,-1,-1,-1,-1,-1,-1,-1,-1,-1,-1],"loss_changes":[3.6278046E1,1.1107567E1,2.1751043E1,6.651291E0,9.611307E0,8.314814E0,1.9378662E1,1.3648186E0,3.3652365E0,2.5813847E0,8.986908E0,6.1365337E0,3.0975792E0,1.5493955E1,8.496824E0,2.2942944E0,8.0311203E-1,2.3523233E0,1.3270497E-1,1.8772259E0,5.1119466E0,2.6101217E0,5.9168186E0,4.729054E0,3.2653542E0,7.6123047E-1,4.683832E0,4.187711E0,1.4831011E1,9.106247E0,2.7777796E0,4.0048647E0,2.880929E0,2.2334099E-1,0E0,1.4489958E0,0E0,0E0,0E0,2.5277212E0,1.8124771E0,6.894438E-1,4.1276836E-1,4.698702E0,1.6232576E0,4.01715E0,5.554611E0,7.97706E0,2.8216672E0,5.630106E0,4.600976E0,3.2358952E0,0E0,1.7384317E0,4.355687E0,2.1642303E0,4.442355E0,1.2336905E1,5.091502E0,8.453459E0,1.3840906E1,3.6982396E0,1.1496029E0,0E0,0E0,0E0,0E0,0E0,0E0,0E0,0E0,0E0,0E0,0E0,0E0,0E0,0E0,0E0,0E0,0E0,0E0,0E0,0E0,0E0,0E0,0E0,0E0,0E0,0E0,0E0,0E0,0E0,0E0,0E0,0E0,0E0,0E0,0E0,0E0,0E0,0E0,0E0,0E0,0E0,0E0,0E0,0E0,0E0,0E0,0E0,0E0,0E0,0E0,0E0,0E0,0E0,0E0],"parents":[2147483647,0,0,1,1,2,2,3,3,4,4,5,5,6,6,7,7,8,8,9,9,10,10,11,11,12,12,13,13,14,14,15,15,16,16,17,17,18,18,19,19,20,20,21,21,22,22,23,23,24,24,25,25,26,26,27,27,28,28,29,29,30,30,31,31,32,32,33,33,35,35,39,39,40,40,41,41,42,42,43,43,44,44,45,45,46,46,47,47,48,48,49,49,50,50,51,51,53,53,54,54,55,55,56,56,57,57,58,58,59,59,60,60,61,61,62,62],"right_children":[2,4,6,8,10,12,14,16,18,20,22,24,26,28,30,32,34,36,38,40,42,44,46,48,50,52,54,56,58,60,62,64,66,68,-1,70,-1,-1,-1,72,74,76,78,80,82,84,86,88,90,92,94,96,-1,98,100,102,104,106,108,110,112,114,116,-1,-1,-1,-1,-1,-1,-1,-1,-1,-1,-1,-1,-1,-1,-1,-1,-1,-1,-1,-1,-1,-1,-1,-1,-1,-1,-1,-1,-1,-1,-1,-1,-1,-1,-1,-1,-1,-1,-1,-1,-1,-1,-1,-1,-1,-1,-1,-1,-1,-1,-1,-1,-1,-1],"split_conditions":[3E0,1.06E2,2.9E1,2.49E2,3.2E1,2.44E2,2.2E2,1.46E2,1.62E2,1.38E2,1.63E2,1E0,2.46E2,1.28E2,2.79E2,1.37E2,1.97E2,1.52E2,1.78E2,1.9E2,2.26E2,1.66E2,1.71E2,1.21E2,1E0,2.6E1,2.48E2,1.08E2,6.6E1,1.11E2,1.47E2,9.2E1,9.8E1,4.7E1,-1.7465822E-2,1.46E2,3.848626E-1,-2.0848824E-1,-3.746473E-2,3E1,2.4E1,1E0,1.51E2,1.41E2,1E0,1.32E2,6.6E1,1.65E2,2.06E2,1.47E2,1.19E2,2.45E2,3.4553885E-1,1.05E2,9.9E1,1.85E2,1E0,1.02E2,1.08E2,2.1E2,1.59E2,1.29E2,3.2E1,8.740085E-2,-2.675994E-1,-1.6552033E-1,1.3327743E-1,-2.5276133E-1,-1.8408765E-1,1.3415465E-1,-1.7836371E-1,-1.7012313E-1,8.3876334E-2,-1.11880735E-1,-2.889461E-1,-2.6962313E-1,-6.115134E-2,3.1893116E-1,9.004125E-2,-1.346704E-1,1.9800358E-1,-2.581205E-1,4.0431965E-2,-2.6222922E-2,4.36598E-2,-9.982495E-2,1.5140298E-1,-6.09409E-3,-1.5067407E-1,-2.2351684E-2,6.26741E-2,-9.025587E-2,1.2295835E-1,-4.6820484E-2,-3.9758015E-1,-1.9327132E-1,2.6411283E-1,6.242459E-2,-3.1341824E-1,-1.8603751E-1,7.986044E-2,9.4379745E-2,3.0203024E-1,5.201591E-2,2.4102971E-1,-5.0889097E-2,-6.144799E-4,-9.385081E-3,1.1101893E-1,3.490502E-3,-4.0966734E-1,8.655591E-2,1.994574E-2,2.8267077E-1,-5.0887983E-2,-4.6567628E-4,1.8763663E-1],"split_indices":[2,3,0,4,0,4,4,6,6,3,4,1,4,6,4,6,6,6,6,4,4,6,6,3,5,0,4,6,0,3,6,3,3,0,0,6,0,0,0,0,0,1,6,3,5,3,0,6,4,3,3,4,0,3,3,4,5,3,3,6,6,6,0,0,0,0,0,0,0,0,0,0,0,0,0,0,0,0,0,0,0,0,0,0,0,0,0,0,0,0,0,0,0,0,0,0,0,0,0,0,0,0,0,0,0,0,0,0,0,0,0,0,0,0,0,0,0],"split_type":[0,0,0,0,0,0,0,0,0,0,0,0,0,0,0,0,0,0,0,0,0,0,0,0,0,0,0,0,0,0,0,0,0,0,0,0,0,0,0,0,0,0,0,0,0,0,0,0,0,0,0,0,0,0,0,0,0,0,0,0,0,0,0,0,0,0,0,0,0,0,0,0,0,0,0,0,0,0,0,0,0,0,0,0,0,0,0,0,0,0,0,0,0,0,0,0,0,0,0,0,0,0,0,0,0,0,0,0,0,0,0,0,0,0,0,0,0],"sum_hessian":[7.775271E3,6.7869305E2,7.096578E3,9.1486084E1,5.87207E2,6.475517E2,6.4490264E3,8.281791E1,8.66817E0,5.7403072E1,5.298039E2,5.782177E2,6.9334015E1,4.752826E3,1.6962003E3,2.4597942E1,5.8219967E1,6.051533E0,2.6166365E0,4.689156E1,1.0511513E1,5.551741E1,4.7428647E2,2.8673813E2,2.9147955E2,6.6158104E0,6.27182E1,2.4439955E2,4.5084263E3,1.6304689E3,6.573154E1,1.4919795E1,9.678148E0,5.626098E1,1.958988E0,3.870963E0,2.1805701E0,1.4988657E0,1.1177708E0,1.633275E1,3.055881E1,6.4804053E0,4.031107E0,3.487337E1,2.0644035E1,3.547259E2,1.1956058E2,1.405151E2,1.4622302E2,2.78372E2,1.3107529E1,4.125313E0,2.4904976E0,4.7027535E0,5.801545E1,1.9778614E1,2.2462094E2,4.334242E3,1.7418443E2,4.85497E2,1.1449718E3,1.4932693E1,5.0798843E1,3.1548502E0,1.1764945E1,4.420267E0,5.2578807E0,2.8219954E1,2.8041027E1,2.794278E0,1.0766851E0,1.2218093E1,4.1146574E0,9.182796E0,2.1376015E1,3.1333244E0,3.3470807E0,1.1754462E0,2.8556612E0,3.1434898E1,3.4384747E0,1.9132133E1,1.5119029E0,2.5085957E2,1.03866325E2,1.11918175E2,7.6424007E0,8.263264E1,5.7882477E1,8.99501E1,5.627292E1,2.6758435E2,1.0787675E1,6.8135734E0,6.293956E0,1.3137934E0,2.8115191E0,1.0716624E0,3.631091E0,5.23073E0,5.2784718E1,1.0262863E1,9.515752E0,2.1369432E2,1.0926616E1,4.950529E2,3.839189E3,4.1171688E1,1.3301276E2,4.8199847E2,3.4985356E0,4.933873E2,6.515845E2,2.89286E0,1.2039832E1,3.1057303E0,4.769311E1],"tree_param":{"num_deleted":"0","num_feature":"7","num_nodes":"117","size_leaf_vector":"1"}},{"base_weights":[-2.052667E-3,-1.07769065E-1,3.200082E-2,-3.9388287E-1,-8.6935006E-2,2.1686235E-2,2.803215E-1,-6.219596E-1,-2.8561217E-1,-3.1852007E-1,-6.2307246E-2,-8.180467E-3,9.810639E-2,2.4111392E-1,8.43667E-1,-8.806335E-1,-4.8672372E-1,-1.5652293E-1,-4.5836136E-1,-5.3508997E-1,-2.0809121E-1,-3.445393E-2,-2.9551128E-1,-2.3974845E-1,3.2160585E-3,-6.953425E-2,1.2498596E-1,7.423745E-2,3.4632203E-1,9.3769425E-1,2.0888282E-1,-1.042742E-1,-2.8342146E-1,-3.6272314E-1,-7.890906E-1,-4.4011194E-1,2.0212522E-2,-5.707641E-1,4.5451808E-1,-5.772859E-1,2.5664774E-1,-1.518413E-1,-6.690426E-1,-7.277523E-2,1.1199168E-1,-7.603541E-1,-2.4100997E-1,-7.784527E-2,-3.9907166E-1,1.4421094E-2,-2.0994352E-1,2.367909E-1,-1.4728673E-1,1.1126566E-1,6.055849E-1,1.6065662E-1,-2.930043E-1,7.5781053E-1,2.6534754E-1,2.5094086E-1,1.0687695E0,-7.962292E-2,1.7997721E-1,-1.3731326E-1,4.788507E-2,-2.6828483E-1,-5.059894E-2,-1.9344272E-1,8.116515E-2,1.4258336E-1,-7.2808765E-2,-2.3446873E-1,-9.551149E-2,-1.042967E-1,3.2354438E-1,-8.51425E-2,-2.3471414E-1,-1.4395967E-1,-1.1118772E-2,-2.776783E-1,1.6567889E-1,-6.426769E-2,-1.0213508E-2,2.0607035E-1,2.7292868E-2,-3.083664E-1,-1.2793137E-1,-1.3558593E-1,-3.095863E-2,7.578379E-2,-8.407807E-2,-4.9261387E-2,-2.0477913E-1,-4.503586E-2,9.326743E-3,-2.0701812E-1,-4.5993097E-2,1.2228622E-1,-8.001766E-2,-3.8388014E-2,-3.789176E-1,2.7103875E-2,8.2802735E-2,2.7098027E-1,7.278801E-2,2.7839547E-2,2.3608859E-1,-6.5113013E-3,-2.6883647E-1,2.4777903E-1,1.28796175E-2,1.2211131E-1,3.5117928E-2,2.0413218E-1,-1.0073932E-1,3.3824533E-1,9.245514E-2],"categories":[],"categories_nodes":[],"categories_segments":[],"categories_sizes":[],"default_left":[0,0,0,0,0,0,0,0,0,0,0,0,0,0,0,0,0,0,0,0,0,0,0,0,0,0,0,0,0,0,0,0,0,0,0,0,0,0,0,0,0,0,0,0,0,0,0,0,0,0,0,0,0,0,0,0,0,0,0,0,0,0,0,0,0,0,0,0,0,0,0,0,0,0,0,0,0,0,0,0,0,0,0,0,0,0,0,0,0,0,0,0,0,0,0,0,0,0,0,0,0,0,0,0,0,0,0,0,0,0,0,0,0,0,0,0,0],"id":10,"left_children":[1,3,5,7,9,11,13,15,17,19,21,23,25,27,29,31,33,35,37,39,41,43,45,47,49,51,53,55,57,59,61,-1,-1,63,65,67,69,71,73,75,-1,77,79,81,83,85,87,89,91,93,95,97,99,101,103,105,107,109,111,113,115,-1,-1,-1,-1,-1,-1,-1,-1,-1,-1,-1,-1,-1,-1,-1,-1,-1,-1,-1,-1,-1,-1,-1,-1,-1,-1,-1,-1,-1,-1,-1,-1,-1,-1,-1,-1,-1,-1,-1,-1,-1,-1,-1,-1,-1,-1,-1,-1,-1,-1,-1,-1,-1,-1,-1,-1],"loss_changes":[2.7685383E1,1.113455E1,1.4892451E1,2.9558372E0,9.94848E0,1.2750016E1,4.918478E0,9.705715E-1,1.8883085E0,3.9006634E0,1.0259357E1,1.0602271E1,7.081937E0,3.8052282E0,6.808653E-1,9.8638535E-2,7.823992E-1,2.6062589E0,4.063374E0,3.7807102E0,2.8216228E0,7.940515E0,4.0869875E0,4.82977E0,9.150098E0,5.2163854E0,8.855251E0,2.7652092E0,4.249035E0,8.576517E-1,7.4932575E-1,0E0,0E0,1.1677344E0,3.3462286E-1,3.0752118E0,4.0493813E0,1.5308933E0,2.6878335E0,3.086237E0,0E0,3.8140035E0,4.261072E0,6.133537E0,3.4842005E0,1.1003942E0,4.3817387E0,6.405668E0,6.1963997E0,9.985895E0,5.096404E0,3.9299002E0,3.59326E0,4.5132637E0,3.8145285E0,2.9009967E0,2.7080536E0,1.0077143E0,2.3294258E0,1.0629745E0,1.0784912E-1,0E0,0E0,0E0,0E0,0E0,0E0,0E0,0E0,0E0,0E0,0E0,0E0,0E0,0E0,0E0,0E0,0E0,0E0,0E0,0E0,0E0,0E0,0E0,0E0,0E0,0E0,0E0,0E0,0E0,0E0,0E0,0E0,0E0,0E0,0E0,0E0,0E0,0E0,0E0,0E0,0E0,0E0,0E0,0E0,0E0,0E0,0E0,0E0,0E0,0E0,0E0,0E0,0E0,0E0,0E0,0E0],"parents":[2147483647,0,0,1,1,2,2,3,3,4,4,5,5,6,6,7,7,8,8,9,9,10,10,11,11,12,12,13,13,14,14,15,15,16,16,17,17,18,18,19,19,20,20,21,21,22,22,23,23,24,24,25,25,26,26,27,27,28,28,29,29,30,30,33,33,34,34,35,35,36,36,37,37,38,38,39,39,41,41,42,42,43,43,44,44,45,45,46,46,47,47,48,48,49,49,50,50,51,51,52,52,53,53,54,54,55,55,56,56,57,57,58,58,59,59,60,60],"right_children":[2,4,6,8,10,12,14,16,18,20,22,24,26,28,30,32,34,36,38,40,42,44,46,48,50,52,54,56,58,60,62,-1,-1,64,66,68,70,72,74,76,-1,78,80,82,84,86,88,90,92,94,96,98,100,102,104,106,108,110,112,114,116,-1,-1,-1,-1,-1,-1,-1,-1,-1,-1,-1,-1,-1,-1,-1,-1,-1,-1,-1,-1,-1,-1,-1,-1,-1,-1,-1,-1,-1,-1,-1,-1,-1,-1,-1,-1,-1,-1,-1,-1,-1,-1,-1,-1,-1,-1,-1,-1,-1,-1,-1,-1,-1,-1,-1,-1],"split_conditions":[4E0,2E0,2.58E2,4.3E1,1.59E2,1.28E2,2.96E2,1.15E2,1.62E2,1.16E2,1.83E2,2.5E1,1.58E2,4E1,3.16E2,1.38E2,1.74E2,1.99E2,2.56E2,1.95E2,1.57E2,5.6E1,1.03E2,1E0,1.93E2,1.44E2,6.6E1,1.79E2,1.41E2,1.47E2,4.6E1,-1.042742E-1,-2.8342146E-1,1.66E2,1.91E2,1.33E2,2.15E2,5.5E1,1.3E2,1.55E2,2.5664774E-1,1.35E2,1.41E2,1.1E2,1.23E2,1.91E2,2E2,1.54E2,1.17E2,1.52E2,3.3E1,1.5E2,7.1E1,1.47E2,1.68E2,1.39E2,1.28E2,6E1,1E0,1.27E2,1.89E2,-7.962292E-2,1.7997721E-1,-1.3731326E-1,4.788507E-2,-2.6828483E-1,-5.059894E-2,-1.9344272E-1,8.116515E-2,1.4258336E-1,-7.2808765E-2,-2.3446873E-1,-9.551149E-2,-1.042967E-1,3.2354438E-1,-8.51425E-2,-2.3471414E-1,-1.4395967E-1,-1.1118772E-2,-2.776783E-1,1.6567889E-1,-6.426769E-2,-1.0213508E-2,2.0607035E-1,2.7292868E-2,-3.083664E-1,-1.2793137E-1,-1.3558593E-1,-3.095863E-2,7.578379E-2,-8.407807E-2,-4.9261387E-2,-2.0477913E-1,-4.503586E-2,9.326743E-3,-2.0701812E-1,-4.5993097E-2,1.2228622E-1,-8.001766E-2,-3.8388014E-2,-3.789176E-1,2.7103875E-2,8.2802735E-2,2.7098027E-1,7.278801E-2,2.7839547E-2,2.3608859E-1,-6.5113013E-3,-2.6883647E-1,2.4777903E-1,1.28796175E-2,1.2211131E-1,3.5117928E-2,2.0413218E-1,-1.0073932E-1,3.3824533E-1,9.245514E-2],"split_indices":[2,2,4,0,4,3,4,3,6,3,6,0,4,0,4,6,6,4,4,6,4,0,3,1,6,6,0,6,6,6,0,0,0,6,6,3,4,0,3,6,0,4,3,3,6,6,4,6,3,4,0,4,0,3,6,3,3,0,1,3,6,0,0,0,0,0,0,0,0,0,0,0,0,0,0,0,0,0,0,0,0,0,0,0,0,0,0,0,0,0,0,0,0,0,0,0,0,0,0,0,0,0,0,0,0,0,0,0,0,0,0,0,0,0,0,0,0],"split_type":[0,0,0,0,0,0,0,0,0,0,0,0,0,0,0,0,0,0,0,0,0,0,0,0,0,0,0,0,0,0,0,0,0,0,0,0,0,0,0,0,0,0,0,0,0,0,0,0,0,0,0,0,0,0,0,0,0,0,0,0,0,0,0,0,0,0,0,0,0,0,0,0,0,0,0,0,0,0,0,0,0,0,0,0,0,0,0,0,0,0,0,0,0,0,0,0,0,0,0,0,0,0,0,0,0,0,0,0,0,0,0,0,0,0,0,0,0],"sum_hessian":[7.6884E3,1.8726718E3,5.815728E3,1.2589209E2,1.7467797E3,5.584836E3,2.30892E2,3.899757E1,8.6894516E1,1.6675735E2,1.5800223E3,4.016134E3,1.5687019E3,2.1720314E2,1.3688856E1,1.1496224E1,2.7501345E1,5.082265E1,3.607187E1,5.5016006E1,1.1174135E2,1.4124684E3,1.6755402E2,1.8744147E2,3.8286926E3,2.1655014E2,1.3521519E3,8.464639E1,1.3255675E2,1.1507174E1,2.181683E0,1.9235238E0,9.5727005E0,2.1063019E1,6.4383254E0,1.8940527E1,3.1882122E1,3.245095E1,3.6209176E0,5.3963398E1,1.0526084E0,1.00773384E2,1.0967969E1,1.1199161E3,2.9255212E2,1.6224428E1,1.5132959E2,9.370632E1,9.3735146E1,3.638369E3,1.9032368E2,4.342422E1,1.7312593E2,1.3158188E3,3.6332928E1,6.8977234E1,1.5669161E1,2.0421589E1,1.12135155E2,2.3113914E0,9.195783E0,1.1310773E0,1.0506057E0,1.7926762E1,3.1362572E0,5.12756E0,1.3107655E0,1.4776898E1,4.163628E0,1.137884E1,2.0503283E1,1.6540068E1,1.5910883E1,1.7779685E0,1.8429489E0,2.31792E1,3.0784199E1,2.5296925E1,7.5476456E1,9.264056E0,1.7039132E0,2.3975436E2,8.8016187E2,9.199533E0,2.833526E2,7.8537335E0,8.370695E0,5.8898426E1,9.243115E1,3.550071E1,5.8205612E1,5.213044E1,4.1604706E1,3.3393024E2,3.3044387E3,1.8901188E1,1.714225E2,3.2565918E1,1.0858304E1,1.7127391E2,1.8520135E0,1.168934E3,1.468849E2,1.9143574E1,1.7189352E1,6.3270275E1,5.7069592E0,1.1522146E1,4.1470146E0,1.8503115E1,1.9184732E0,5.6450935E1,5.568422E1,1.2423075E0,1.0690837E0,8.088949E0,1.1068332E0],"tree_param":{"num_deleted":"0","num_feature":"7","num_nodes":"117","size_leaf_vector":"1"}},{"base_weights":[-1.8247834E-3,-7.966182E-2,2.2928225E-2,-2.9201433E-1,-5.9904225E-2,-1.5769828E-2,6.729354E-2,-4.4106978E-1,-1.6453846E-1,-3.918853E-1,-4.778459E-2,-1.3396163E-1,9.596431E-4,5.3449504E-2,3.2475454E-1,-5.120068E-1,-3.284662E-2,-9.613276E-2,-7.197967E-1,-4.4527113E-1,5.132778E-1,-2.900456E-1,-3.1592544E-2,3.764556E-1,-1.5553151E-1,3.588274E-2,-6.49483E-2,8.743063E-2,-5.476787E-2,7.49706E-1,2.4574205E-1,-5.436185E-1,9.015964E-2,2.1642879E-1,-2.7295455E-1,-3.8283616E-1,2.4446767E-2,-8.7658274E-1,1.2856217E-2,-2.6308808E-1,-7.2130865E-1,-7.800058E-2,2.943171E-1,-4.762608E-1,-1.503574E-1,1.3646463E-2,-1.1582984E-1,-1.7762057E-1,8.313349E-1,-3.6194858E-1,-1.01488695E-1,-2.644739E-1,4.544162E-2,-3.0693838E-1,-4.5388333E-2,7.237589E-2,3.175557E-1,3.364571E-2,-1.3767473E-1,8.2449454E-1,-2.7488131E-2,-7.7068776E-2,3.7332958E-1,-1.3051035E-1,-2.7725536E-1,-4.109875E-2,3.0148453E-1,-1.2030135E-2,-2.15395E-1,2.3511182E-1,-2.3478998E-2,-2.1378681E-2,-2.964472E-1,-2.0570324E-1,5.6212272E-2,4.5501133E-3,-2.3730318E-1,-1.8267873E-1,-4.4060055E-2,3.5679215E-1,-7.4876495E-2,5.575767E-3,-2.765354E-1,-1.5217985E-1,-2.4882548E-2,1.6744766E-1,-2.4522544E-1,-1.1649574E-1,3.170512E-1,-1.4344001E-1,-4.148698E-2,3.0439032E-2,-5.019985E-2,1.2707219E-1,-1.3009366E-1,4.7744503E-3,3.3605922E-2,-1.8530169E-1,-4.9997665E-2,-4.103661E-2,-1.9656434E-3,1.04233496E-1,1.8241981E-2,1.729737E-2,1.368738E-1,-2.6752972E-3,1.14966616E-1,-4.8658494E-2,1.1286732E-1,6.4741954E-2,2.6966268E-1,-1.0408088E-1,1.2976104E-1,6.962978E-2,1.7058244E-1],"categories":[],"categories_nodes":[],"categories_segments":[],"categories_sizes":[],"default_left":[0,0,0,0,0,0,0,0,0,0,0,0,0,0,0,0,0,0,0,0,0,0,0,0,0,0,0,0,0,0,0,0,0,0,0,0,0,0,0,0,0,0,0,0,0,0,0,0,0,0,0,0,0,0,0,0,0,0,0,0,0,0,0,0,0,0,0,0,0,0,0,0,0,0,0,0,0,0,0,0,0,0,0,0,0,0,0,0,0,0,0,0,0,0,0,0,0,0,0,0,0,0,0,0,0,0,0,0,0,0,0,0,0,0,0],"id":11,"left_children":[1,3,5,7,9,11,13,15,17,19,21,23,25,27,29,31,33,35,37,39,41,43,45,47,49,51,53,55,57,59,61,63,-1,65,-1,67,69,71,-1,73,75,-1,-1,77,79,81,83,85,87,89,91,93,95,97,99,101,103,105,107,109,-1,111,113,-1,-1,-1,-1,-1,-1,-1,-1,-1,-1,-1,-1,-1,-1,-1,-1,-1,-1,-1,-1,-1,-1,-1,-1,-1,-1,-1,-1,-1,-1,-1,-1,-1,-1,-1,-1,-1,-1,-1,-1,-1,-1,-1,-1,-1,-1,-1,-1,-1,-1,-1,-1],"loss_changes":[1.465768E1,7.6838064E0,9.910957E0,2.8913736E0,6.7430997E0,6.097661E0,9.5682745E0,2.0482779E0,3.1850226E0,3.082179E0,6.3555536E0,4.268407E0,6.2224903E0,9.394205E0,4.416875E0,1.7221699E0,2.73855E0,2.6862593E0,1.1427917E0,2.6415205E0,1.6127983E0,2.569377E0,5.801654E0,4.128915E0,4.0637865E0,5.085395E0,4.4180737E0,6.710332E0,4.4816976E0,1.3967094E0,4.8491306E0,2.0265427E0,0E0,2.8856878E0,0E0,2.6113892E0,4.385389E0,6.226692E-1,0E0,6.8843575E0,1.131588E0,0E0,0E0,1.792119E0,8.20299E0,4.596554E0,6.8052955E0,4.1966233E0,2.8446383E0,1.9056797E0,3.9284282E0,6.5447435E0,3.3665175E0,2.9418187E0,3.0783882E0,5.78823E0,4.2646446E0,4.4132543E0,4.035378E0,6.8356705E-1,0E0,4.823576E0,2.1861782E0,0E0,0E0,0E0,0E0,0E0,0E0,0E0,0E0,0E0,0E0,0E0,0E0,0E0,0E0,0E0,0E0,0E0,0E0,0E0,0E0,0E0,0E0,0E0,0E0,0E0,0E0,0E0,0E0,0E0,0E0,0E0,0E0,0E0,0E0,0E0,0E0,0E0,0E0,0E0,0E0,0E0,0E0,0E0,0E0,0E0,0E0,0E0,0E0,0E0,0E0,0E0,0E0],"parents":[2147483647,0,0,1,1,2,2,3,3,4,4,5,5,6,6,7,7,8,8,9,9,10,10,11,11,12,12,13,13,14,14,15,15,16,16,17,17,18,18,19,19,20,20,21,21,22,22,23,23,24,24,25,25,26,26,27,27,28,28,29,29,30,30,31,31,33,33,35,35,36,36,37,37,39,39,40,40,43,43,44,44,45,45,46,46,47,47,48,48,49,49,50,50,51,51,52,52,53,53,54,54,55,55,56,56,57,57,58,58,59,59,61,61,62,62],"right_children":[2,4,6,8,10,12,14,16,18,20,22,24,26,28,30,32,34,36,38,40,42,44,46,48,50,52,54,56,58,60,62,64,-1,66,-1,68,70,72,-1,74,76,-1,-1,78,80,82,84,86,88,90,92,94,96,98,100,102,104,106,108,110,-1,112,114,-1,-1,-1,-1,-1,-1,-1,-1,-1,-1,-1,-1,-1,-1,-1,-1,-1,-1,-1,-1,-1,-1,-1,-1,-1,-1,-1,-1,-1,-1,-1,-1,-1,-1,-1,-1,-1,-1,-1,-1,-1,-1,-1,-1,-1,-1,-1,-1,-1,-1,-1,-1],"split_conditions":[4E0,3.1E1,4.5E1,2.03E2,9.5E1,1.6E2,2.52E2,1.39E2,1.85E2,2.61E2,2E0,1.23E2,1.68E2,1.76E2,1.41E2,1.95E2,1.52E2,3E0,2.8E1,2.11E2,5.1E1,2.01E2,1.66E2,1.17E2,3.1E1,1.9E1,9.9E1,6.6E1,1E0,1.37E2,1.58E2,1.72E2,9.015964E-2,1.46E2,-2.7295455E-1,1E0,2.08E2,2.1E2,1.2856217E-2,1.88E2,1.31E2,-7.800058E-2,2.943171E-1,1.31E2,2.03E2,2.88E2,1.56E2,1.2E2,1.02E2,1.26E2,3.6E1,1.35E2,4E1,1.73E2,1.91E2,1.24E2,1.78E2,6.5E1,1.45E2,1.21E2,-2.7488131E-2,2.7E2,1.21E2,-1.3051035E-1,-2.7725536E-1,-4.109875E-2,3.0148453E-1,-1.2030135E-2,-2.15395E-1,2.3511182E-1,-2.3478998E-2,-2.1378681E-2,-2.964472E-1,-2.0570324E-1,5.6212272E-2,4.5501133E-3,-2.3730318E-1,-1.8267873E-1,-4.4060055E-2,3.5679215E-1,-7.4876495E-2,5.575767E-3,-2.765354E-1,-1.5217985E-1,-2.4882548E-2,1.6744766E-1,-2.4522544E-1,-1.1649574E-1,3.170512E-1,-1.4344001E-1,-4.148698E-2,3.0439032E-2,-5.019985E-2,1.2707219E-1,-1.3009366E-1,4.7744503E-3,3.3605922E-2,-1.8530169E-1,-4.9997665E-2,-4.103661E-2,-1.9656434E-3,1.04233496E-1,1.8241981E-2,1.729737E-2,1.368738E-1,-2.6752972E-3,1.14966616E-1,-4.8658494E-2,1.1286732E-1,6.4741954E-2,2.6966268E-1,-1.0408088E-1,1.2976104E-1,6.962978E-2,1.7058244E-1],"split_indices":[2,0,0,4,3,4,4,3,6,4,2,6,6,6,6,6,3,2,0,4,0,4,6,6,0,0,3,0,1,3,6,6,0,3,0,1,4,4,0,4,6,0,0,3,4,4,4,3,3,3,0,6,0,6,4,6,4,0,3,6,0,4,3,0,0,0,0,0,0,0,0,0,0,0,0,0,0,0,0,0,0,0,0,0,0,0,0,0,0,0,0,0,0,0,0,0,0,0,0,0,0,0,0,0,0,0,0,0,0,0,0,0,0,0,0],"split_type":[0,0,0,0,0,0,0,0,0,0,0,0,0,0,0,0,0,0,0,0,0,0,0,0,0,0,0,0,0,0,0,0,0,0,0,0,0,0,0,0,0,0,0,0,0,0,0,0,0,0,0,0,0,0,0,0,0,0,0,0,0,0,0,0,0,0,0,0,0,0,0,0,0,0,0,0,0,0,0,0,0,0,0,0,0,0,0,0,0,0,0,0,0,0,0,0,0,0,0,0,0,0,0,0,0,0,0,0,0,0,0,0,0,0,0],"sum_hessian":[7.6057104E3,1.8345768E3,5.7711333E3,1.549892E2,1.6795875E3,3.082788E3,2.6883455E3,7.031315E1,8.467605E1,5.805341E1,1.6215342E3,3.813793E2,2.7014087E3,2.5523118E3,1.3603377E2,5.968708E1,1.0626067E1,7.643294E1,8.2431135E0,5.529994E1,2.7534723E0,1.0052928E2,1.5210049E3,1.4796254E1,3.6658304E2,1.7660664E3,9.353423E2,1.9425328E3,6.097789E2,1.9996813E1,1.1603696E2,5.777049E1,1.9165906E0,8.8607435E0,1.765324E0,2.1984694E1,5.4448242E1,6.71355E0,1.5295633E0,3.4489906E1,2.0810034E1,1.2052563E0,1.5482159E0,4.205596E1,5.847332E1,9.901111E2,5.308938E2,6.9455676E0,7.8506866E0,7.488014E1,2.917029E2,5.3649147E1,1.7124172E3,6.885062E1,8.664917E2,1.8244895E3,1.1804326E2,2.9537698E2,3.1440192E2,1.8382732E1,1.6140811E0,3.2982777E1,8.3054184E1,4.661368E1,1.1156808E1,6.6889377E0,2.171806E0,1.1422851E1,1.0561843E1,5.6978683E0,4.8750374E1,1.0163629E0,5.6971874E0,1.7526096E1,1.6963808E1,1.8668765E0,1.8943157E1,2.9375795E1,1.2680168E1,3.274932E0,5.5198387E1,9.858854E2,4.2257133E0,4.0029907E1,4.9086386E2,3.2898166E0,3.655751E0,1.1123587E0,6.738328E0,4.8531517E1,2.6348623E1,7.132281E1,2.203801E2,1.0290846E1,4.33583E1,1.1871611E3,5.252561E2,2.0356243E1,4.8494377E1,2.576334E2,6.0885834E2,7.2468254E1,1.7520212E3,4.156623E1,7.647703E1,2.641851E2,3.1191895E1,3.007369E2,1.3665008E1,2.4265683E0,1.5956163E1,2.1772242E1,1.1210535E1,4.9466976E1,3.3587208E1],"tree_param":{"num_deleted":"0","num_feature":"7","num_nodes":"115","size_leaf_vector":"1"}},{"base_weights":[-1.49235E-3,-1.2418365E-2,1.1376264E-1,-1.309512E-1,-2.4180254E-3,7.23917E-2,2.9164082E-1,-3.784377E-1,-9.154067E-2,8.431143E-3,-1.12784505E-1,-9.540495E-2,1.1418807E-1,1.1620488E-1,4.950448E-1,-4.6190852E-1,2.396799E-1,-4.5030198E-1,-5.942402E-2,-1.472465E-1,1.6772592E-2,-2.6787478E-1,-6.855327E-2,-1.506095E-1,8.796313E-1,1.4282389E-1,-1.6413414E-1,-2.9907078E-1,3.2700703E-1,6.3259584E-1,-3.0205977E-1,-1.0065013E-1,-5.3564E-1,5.7166225E-1,-3.962627E-1,-1.1437939E-1,-6.305613E-1,-3.653061E-1,-2.9100323E-2,-4.1162792E-1,-9.978383E-2,-1.1925814E-2,5.8835216E-2,-3.6385962E-1,1.9372171E-1,-8.906755E-2,2.2752717E-1,-2.1404108E-1,5.5953705E-1,3.6030257E-1,2.8875161E-2,1.1536043E-1,4.2617574E-1,-4.2802593E-1,1.5559104E-1,-1.2253941E-1,-1.1469276E0,4.305659E-1,-1.6783893E-1,6.82424E-1,-2.8614023E-1,-8.124027E-1,3.7340412E-1,-9.678205E-2,2.4777399E-1,-2.504949E-1,-1.0828481E-1,3.3778295E-2,3.33604E-1,-2.1280473E-1,5.9063815E-2,1.1425298E-1,-1.4777483E-1,-6.743224E-2,-2.5510463E-1,-1.9096588E-1,-1.6611265E-2,-1.8901918E-2,6.2116727E-2,2.0626378E-1,-1.5791553E-1,-3.305448E-2,2.6327953E-1,-2.190062E-2,3.440061E-3,1.083898E-2,4.8623122E-2,-7.5636104E-2,-1.781698E-1,9.056629E-2,-9.595511E-2,-1.9596562E-2,-9.192018E-2,3.4464148E-1,1.1365943E-2,7.541345E-2,-9.018574E-2,-7.513701E-2,3.5578206E-1,5.8447074E-2,-5.4502958E-3,1.4583483E-1,-1.9875583E-1,-2.1975346E-2,-2.6626006E-1,1.8885209E-1,-4.2570543E-2,-1.6051942E-1,4.1192792E-2,-4.2602533E-1,-6.933137E-2,8.661128E-2,2.0927395E-1,1.8426596E-1,-1.4212385E-1,1.5505317E-1,2.948419E-1,-1.329472E-1,-3.2484983E-3,-4.4508216E-1,-3.2503977E-3,2.5244796E-1,-6.305027E-2],"categories":[],"categories_nodes":[],"categories_segments":[],"categories_sizes":[],"default_left":[0,0,0,0,0,0,0,0,0,0,0,0,0,0,0,0,0,0,0,0,0,0,0,0,0,0,0,0,0,0,0,0,0,0,0,0,0,0,0,0,0,0,0,0,0,0,0,0,0,0,0,0,0,0,0,0,0,0,0,0,0,0,0,0,0,0,0,0,0,0,0,0,0,0,0,0,0,0,0,0,0,0,0,0,0,0,0,0,0,0,0,0,0,0,0,0,0,0,0,0,0,0,0,0,0,0,0,0,0,0,0,0,0,0,0,0,0,0,0,0,0,0,0],"id":12,"left_children":[1,3,5,7,9,11,13,15,17,19,21,23,25,27,29,31,33,35,37,39,41,43,45,47,49,51,53,55,57,59,61,63,65,67,69,71,73,75,77,79,81,83,85,87,89,91,93,95,97,-1,-1,99,101,103,105,107,109,111,113,115,117,119,121,-1,-1,-1,-1,-1,-1,-1,-1,-1,-1,-1,-1,-1,-1,-1,-1,-1,-1,-1,-1,-1,-1,-1,-1,-1,-1,-1,-1,-1,-1,-1,-1,-1,-1,-1,-1,-1,-1,-1,-1,-1,-1,-1,-1,-1,-1,-1,-1,-1,-1,-1,-1,-1,-1,-1,-1,-1,-1,-1,-1],"loss_changes":[9.487257E0,8.156685E0,4.779602E0,5.187216E0,7.6007814E0,3.7321072E0,4.323308E0,3.8887377E0,5.3098E0,7.508088E0,3.879036E0,5.8571506E0,3.4126E0,5.9824343E0,6.390789E0,1.6735659E0,2.2047918E0,2.2230382E0,3.943049E0,3.6487026E0,6.624022E0,5.6412525E0,2.71351E0,4.692317E0,1.3559666E0,2.9554348E0,3.452947E0,3.325288E0,2.381679E0,2.4176693E0,3.4052577E0,2.7804706E0,2.5030766E0,1.5034926E0,8.4616E-1,2.8955104E0,1.9890547E0,3.1895256E0,3.1269546E0,5.9667315E0,2.6435716E0,4.661921E0,5.210904E0,2.5347443E0,1.3351737E0,2.1237564E0,5.025406E0,3.8596387E0,4.6606193E0,0E0,0E0,3.7528863E0,2.52414E0,3.5629063E0,2.751343E0,2.2479198E0,6.401477E-1,1.220851E0,2.3289235E0,1.7970848E0,1.3362214E-1,2.9110467E0,1.4218767E0,0E0,0E0,0E0,0E0,0E0,0E0,0E0,0E0,0E0,0E0,0E0,0E0,0E0,0E0,0E0,0E0,0E0,0E0,0E0,0E0,0E0,0E0,0E0,0E0,0E0,0E0,0E0,0E0,0E0,0E0,0E0,0E0,0E0,0E0,0E0,0E0,0E0,0E0,0E0,0E0,0E0,0E0,0E0,0E0,0E0,0E0,0E0,0E0,0E0,0E0,0E0,0E0,0E0,0E0,0E0,0E0,0E0,0E0,0E0,0E0],"parents":[2147483647,0,0,1,1,2,2,3,3,4,4,5,5,6,6,7,7,8,8,9,9,10,10,11,11,12,12,13,13,14,14,15,15,16,16,17,17,18,18,19,19,20,20,21,21,22,22,23,23,24,24,25,25,26,26,27,27,28,28,29,29,30,30,31,31,32,32,33,33,34,34,35,35,36,36,37,37,38,38,39,39,40,40,41,41,42,42,43,43,44,44,45,45,46,46,47,47,48,48,51,51,52,52,53,53,54,54,55,55,56,56,57,57,58,58,59,59,60,60,61,61,62,62],"right_children":[2,4,6,8,10,12,14,16,18,20,22,24,26,28,30,32,34,36,38,40,42,44,46,48,50,52,54,56,58,60,62,64,66,68,70,72,74,76,78,80,82,84,86,88,90,92,94,96,98,-1,-1,100,102,104,106,108,110,112,114,116,118,120,122,-1,-1,-1,-1,-1,-1,-1,-1,-1,-1,-1,-1,-1,-1,-1,-1,-1,-1,-1,-1,-1,-1,-1,-1,-1,-1,-1,-1,-1,-1,-1,-1,-1,-1,-1,-1,-1,-1,-1,-1,-1,-1,-1,-1,-1,-1,-1,-1,-1,-1,-1,-1,-1,-1,-1,-1,-1,-1,-1,-1],"split_conditions":[1.4E2,3E0,5.4E1,1.06E2,1.87E2,1.68E2,2.02E2,2.49E2,3.2E1,9.5E1,1.08E2,1E0,1.57E2,4E0,1.81E2,1.68E2,1.6E2,1.9E2,1.63E2,1.64E2,4.7E1,5.8E1,1E0,1.57E2,1.49E2,2.48E2,1.61E2,1.98E2,1.85E2,2.65E2,1.91E2,1.65E2,1.99E2,1.52E2,5.5E1,1.57E2,2.5E1,4.9E1,6.2E1,1.16E2,2.84E2,1.8E2,2.28E2,4.9E1,7E1,2.08E2,1.61E2,1.41E2,4E1,3.6030257E-1,2.8875161E-2,1.67E2,2.97E2,2.15E2,3.6E1,3E0,2.01E2,1.68E2,5.6E1,1.66E2,1.6E2,1.44E2,6.1E1,-9.678205E-2,2.4777399E-1,-2.504949E-1,-1.0828481E-1,3.3778295E-2,3.33604E-1,-2.1280473E-1,5.9063815E-2,1.1425298E-1,-1.4777483E-1,-6.743224E-2,-2.5510463E-1,-1.9096588E-1,-1.6611265E-2,-1.8901918E-2,6.2116727E-2,2.0626378E-1,-1.5791553E-1,-3.305448E-2,2.6327953E-1,-2.190062E-2,3.440061E-3,1.083898E-2,4.8623122E-2,-7.5636104E-2,-1.781698E-1,9.056629E-2,-9.595511E-2,-1.9596562E-2,-9.192018E-2,3.4464148E-1,1.1365943E-2,7.541345E-2,-9.018574E-2,-7.513701E-2,3.5578206E-1,5.8447074E-2,-5.4502958E-3,1.4583483E-1,-1.9875583E-1,-2.1975346E-2,-2.6626006E-1,1.8885209E-1,-4.2570543E-2,-1.6051942E-1,4.1192792E-2,-4.2602533E-1,-6.933137E-2,8.661128E-2,2.0927395E-1,1.8426596E-1,-1.4212385E-1,1.5505317E-1,2.948419E-1,-1.329472E-1,-3.2484983E-3,-4.4508216E-1,-3.2503977E-3,2.5244796E-1,-6.305027E-2],"split_indices":[3,2,0,3,6,4,4,4,0,3,3,5,3,2,6,4,6,4,4,4,0,0,5,3,3,4,3,4,6,4,6,4,4,6,0,6,0,0,0,4,4,4,4,0,0,6,4,6,0,0,0,6,4,4,0,2,4,6,0,6,6,3,0,0,0,0,0,0,0,0,0,0,0,0,0,0,0,0,0,0,0,0,0,0,0,0,0,0,0,0,0,0,0,0,0,0,0,0,0,0,0,0,0,0,0,0,0,0,0,0,0,0,0,0,0,0,0,0,0,0,0,0,0],"split_type":[0,0,0,0,0,0,0,0,0,0,0,0,0,0,0,0,0,0,0,0,0,0,0,0,0,0,0,0,0,0,0,0,0,0,0,0,0,0,0,0,0,0,0,0,0,0,0,0,0,0,0,0,0,0,0,0,0,0,0,0,0,0,0,0,0,0,0,0,0,0,0,0,0,0,0,0,0,0,0,0,0,0,0,0,0,0,0,0,0,0,0,0,0,0,0,0,0,0,0,0,0,0,0,0,0,0,0,0,0,0,0,0,0,0,0,0,0,0,0,0,0,0,0],"sum_hessian":[7.531766E3,6.8804053E3,6.513607E2,5.343791E2,6.3460264E3,5.295945E2,1.21766205E2,7.2224976E1,4.621541E2,5.7788784E3,5.671477E2,1.0535425E2,4.2424023E2,6.622149E1,5.554472E1,6.3854725E1,8.37025E0,3.690323E1,4.252509E2,2.9304712E2,5.4858315E3,1.2473313E2,4.4241455E2,1.00509155E2,4.8450875E0,3.851047E2,3.9135544E1,2.2155972E1,4.4065514E1,4.754635E1,7.998374E0,1.1224363E1,5.2630363E1,5.5658026E0,2.8044477E0,1.3458025E1,2.3445202E1,3.7358658E1,3.878922E2,4.3433983E1,2.4961313E2,3.26138E3,2.2244517E3,1.0343624E2,2.1296896E1,4.1440146E2,2.8013103E1,9.290896E1,7.6002016E0,3.0576112E0,1.7874765E0,3.5235986E2,3.2744827E1,2.1254211E1,1.7881332E1,1.9285158E1,2.8708138E0,3.6547035E1,7.5184803E0,4.5344288E1,2.2020595E0,4.440583E0,3.5577908E0,9.58106E0,1.6433027E0,1.8002396E1,3.4627968E1,3.6625607E0,1.9032416E0,1.7073276E0,1.09712E0,5.824455E0,7.63357E0,8.947809E0,1.4497394E1,1.9360796E1,1.799786E1,3.3983383E2,4.805839E1,3.634122E0,3.9799862E1,2.4786353E2,1.7495954E0,9.026137E2,2.358766E3,1.8245422E3,3.999093E2,7.103012E1,3.2406116E1,1.7932274E1,3.3646233E0,3.7475638E2,3.964509E1,3.9186137E0,2.409449E1,1.4273759E1,7.863519E1,3.5761256E0,4.0240755E0,2.2061304E2,1.3174684E2,3.1560678E1,1.1841508E0,1.264823E1,8.605982E0,6.465514E0,1.1415818E1,7.0437098E0,1.2241447E1,1.7871593E0,1.0836546E0,2.5225975E1,1.1321058E1,1.8306129E0,5.6878676E0,3.0984997E1,1.4359292E1,1.0140606E0,1.1879989E0,1.9537238E0,2.4868593E0,1.7289838E0,1.828807E0],"tree_param":{"num_deleted":"0","num_feature":"7","num_nodes":"123","size_leaf_vector":"1"}},{"base_weights":[-1.1416257E-3,-5.454585E-2,1.5634188E-2,1.0185393E-1,-7.28323E-2,1.4135359E-2,7.137431E-1,-3.1484628E-1,1.5550348E-1,-1.2540703E-1,-1.9046983E-2,5.3562856E-1,1.216403E-2,3.3943468E-1,3.0504125E-1,4.9872652E-1,-5.6025517E-1,1.8071549E-1,-5.873433E-1,-2.205969E-1,-6.494729E-2,-4.0782873E-2,3.620868E-1,-1.15197495E-1,7.2060424E-1,2.5795323E-3,1.1036017E-1,-6.277556E-2,2.3559457E-1,-7.716188E-2,3.4108037E-1,-6.4798725E-1,1.0395838E-1,1.3358428E-1,5.489418E-1,-1.1256123E0,1.8052052E-1,-6.9635004E-1,-1.9373898E-1,7.675281E-2,-1.19179495E-1,-4.5314443E-1,-3.0226657E-2,3.379747E-2,7.9206026E-1,-1.594837E-1,1.8144253E-1,3.724552E-1,8.799771E-1,-4.1476667E-2,1.869767E-2,1.4516702E-1,-7.7430114E-2,4.1531911E-1,-2.597521E-1,-1.8342428E-1,2.1136624E-1,-2.279754E-1,-5.491383E-2,2.7766526E-2,1.37068E-1,2.147325E-1,-2.1181335E-1,-7.945166E-2,-4.3611655E-1,-2.3625962E-1,6.661334E-2,-6.6910826E-2,7.23374E-2,8.9711115E-2,-7.3126107E-3,-9.348332E-2,-7.2179595E-3,-2.823782E-1,-3.2327045E-2,-2.6442474E-1,-7.548056E-3,1.6931161E-1,-7.72735E-2,-9.8107226E-2,2.674619E-1,-6.875085E-2,2.1219614E-1,-7.02432E-2,1.7016098E-1,1.2018208E-1,3.1356233E-1,5.1603302E-2,-1.670666E-2,-6.0736727E-2,7.751501E-3,3.1762954E-2,1.11371614E-1,-2.6667354E-1,-6.3522235E-3,1.938845E-1,1.6503789E-2],"categories":[],"categories_nodes":[],"categories_segments":[],"categories_sizes":[],"default_left":[0,0,0,0,0,0,0,0,0,0,0,0,0,0,0,0,0,0,0,0,0,0,0,0,0,0,0,0,0,0,0,0,0,0,0,0,0,0,0,0,0,0,0,0,0,0,0,0,0,0,0,0,0,0,0,0,0,0,0,0,0,0,0,0,0,0,0,0,0,0,0,0,0,0,0,0,0,0,0,0,0,0,0,0,0,0,0,0,0,0,0,0,0,0,0,0,0],"id":13,"left_children":[1,3,5,7,9,11,13,15,17,19,21,23,25,27,-1,29,31,33,35,37,39,41,43,45,47,49,51,53,-1,55,-1,57,-1,59,61,63,-1,65,67,69,71,73,75,77,79,-1,81,83,85,87,89,91,93,95,-1,-1,-1,-1,-1,-1,-1,-1,-1,-1,-1,-1,-1,-1,-1,-1,-1,-1,-1,-1,-1,-1,-1,-1,-1,-1,-1,-1,-1,-1,-1,-1,-1,-1,-1,-1,-1,-1,-1,-1,-1,-1,-1],"loss_changes":[6.7024207E0,5.121961E0,5.946722E0,4.2433424E0,4.5267715E0,5.83456E0,1.0361218E0,4.6181993E0,3.231741E0,4.6460705E0,6.583423E0,2.656159E0,5.3280163E0,1.2954984E0,0E0,2.1330774E0,1.5901737E0,2.7412086E0,4.3342175E0,3.8789454E0,3.8257532E0,3.2554994E0,6.026073E0,7.8727925E-1,6.033726E-1,3.6641958E0,3.301807E0,2.1177955E0,0E0,2.0435846E0,0E0,6.935687E-1,0E0,1.882405E0,4.290969E0,8.2419825E-1,0E0,1.5482674E0,3.8596525E0,3.1111295E0,6.574138E0,3.0468845E0,3.1404166E0,4.065948E0,2.3533697E0,0E0,1.0283115E0,9.6016985E-1,4.349575E-1,4.203306E0,5.971078E0,3.736208E0,3.604518E0,2.5955784E-1,0E0,0E0,0E0,0E0,0E0,0E0,0E0,0E0,0E0,0E0,0E0,0E0,0E0,0E0,0E0,0E0,0E0,0E0,0E0,0E0,0E0,0E0,0E0,0E0,0E0,0E0,0E0,0E0,0E0,0E0,0E0,0E0,0E0,0E0,0E0,0E0,0E0,0E0,0E0,0E0,0E0,0E0,0E0],"parents":[2147483647,0,0,1,1,2,2,3,3,4,4,5,5,6,6,7,7,8,8,9,9,10,10,11,11,12,12,13,13,15,15,16,16,17,17,18,18,19,19,20,20,21,21,22,22,23,23,24,24,25,25,26,26,27,27,29,29,31,31,33,33,34,34,35,35,37,37,38,38,39,39,40,40,41,41,42,42,43,43,44,44,46,46,47,47,48,48,49,49,50,50,51,51,52,52,53,53],"right_children":[2,4,6,8,10,12,14,16,18,20,22,24,26,28,-1,30,32,34,36,38,40,42,44,46,48,50,52,54,-1,56,-1,58,-1,60,62,64,-1,66,68,70,72,74,76,78,80,-1,82,84,86,88,90,92,94,96,-1,-1,-1,-1,-1,-1,-1,-1,-1,-1,-1,-1,-1,-1,-1,-1,-1,-1,-1,-1,-1,-1,-1,-1,-1,-1,-1,-1,-1,-1,-1,-1,-1,-1,-1,-1,-1,-1,-1,-1,-1,-1,-1],"split_conditions":[4E0,1.33E2,2.96E2,1.04E2,4.7E1,1.08E2,1E0,9.2E1,6.9E1,1.96E2,1E0,1.75E2,1.39E2,4.4E1,3.0504125E-1,5E1,2.64E2,2.44E2,7.5E1,9.9E1,2.1E2,9.2E1,1.25E2,3.5E1,1.91E2,3.7E1,1.82E2,4E1,2.3559457E-1,2.06E2,3.4108037E-1,1.3E2,1.0395838E-1,1.32E2,1.41E2,3E0,1.8052052E-1,1.94E2,4.6E1,1.5E2,2.24E2,1.54E2,1.17E2,1.11E2,1.58E2,-1.594837E-1,1.03E2,2.9E1,1.08E2,1.3E2,9.1E1,5.4E1,1.37E2,1.18E2,-2.597521E-1,-1.8342428E-1,2.1136624E-1,-2.279754E-1,-5.491383E-2,2.7766526E-2,1.37068E-1,2.147325E-1,-2.1181335E-1,-7.945166E-2,-4.3611655E-1,-2.3625962E-1,6.661334E-2,-6.6910826E-2,7.23374E-2,8.9711115E-2,-7.3126107E-3,-9.348332E-2,-7.2179595E-3,-2.823782E-1,-3.2327045E-2,-2.6442474E-1,-7.548056E-3,1.6931161E-1,-7.72735E-2,-9.8107226E-2,2.674619E-1,-6.875085E-2,2.1219614E-1,-7.02432E-2,1.7016098E-1,1.2018208E-1,3.1356233E-1,5.1603302E-2,-1.670666E-2,-6.0736727E-2,7.751501E-3,3.1762954E-2,1.11371614E-1,-2.6667354E-1,-6.3522235E-3,1.938845E-1,1.6503789E-2],"split_indices":[2,6,4,3,0,6,1,3,0,4,5,4,3,0,0,0,4,4,0,3,4,3,3,0,4,0,6,0,0,4,0,6,0,6,3,2,0,4,0,6,4,6,4,3,4,0,6,0,3,6,3,0,4,3,0,0,0,0,0,0,0,0,0,0,0,0,0,0,0,0,0,0,0,0,0,0,0,0,0,0,0,0,0,0,0,0,0,0,0,0,0,0,0,0,0,0,0],